1005 30
91 0.2033717 -0.1942067 1.6085639 -0.032863002 -0.4268723 -0.12078805 0.4402011 0.10462601 -0.39149177 -0.84668 -0.12776071 -0.37798482 -0.027704323 -0.33013022 -0.40545818 -0.013441697 -0.1769012 -0.59133327 0.340215 1.5254288 1.9902892 1.9131813 -0.08426348 -0.3008692 1.6920154 -0.22015779 -1.1700904 0.058473233 -0.017493365 -0.29618502
225 -0.18544523 -0.16410042 1.4856184 -0.017054008 -0.3950105 -0.032619983 -0.0028693376 -0.024812317 -0.18038006 -0.7011945 -0.12694825 -0.32704324 -0.017343514 -0.2653669 -0.24905924 -0.15565042 -0.1436021 -0.48535544 -0.0498241 0.15663768 0.6604249 1.9717643 -0.050381925 -0.37874135 1.4767575 -0.06033813 -0.88602227 -0.13769707 -0.12819336 -0.18562733
59 -0.62818044 -0.31580684 0.48794007 -0.011904263 -1.0473641 -0.30644983 -0.1372147 -0.3456234 -0.505165 -1.1786028 -0.5518207 -0.55498785 -0.30316666 -0.29270452 -0.53730863 2.7314918 -0.49408194 -1.0697331 -0.1306694 2.9878464 -0.14263566 1.1203983 0.5225571 -0.21500103 0.8310696 -0.19888303 -1.8772551 -0.23058286 0.09330256 -0.42219502
258 0.07399189 -0.2631004 3.4632747 -0.1427714 -0.80659026 -0.07067727 0.6215716 -0.19658011 -0.74664104 -1.4546555 -0.1718764 -0.59708333 0.11774018 -0.63615364 -0.6524181 -0.200158 -0.19501242 -1.070412 0.78717446 1.5229323 2.6265166 2.7580416 -0.13101922 -0.58955365 3.5116181 -0.2981359 -1.8681103 -0.019672131 -0.022525875 -0.4187594
214 -0.48083258 -0.008578836 2.2231138 -0.20154195 -0.7811682 2.5938807 -0.042518664 -0.28983873 -0.4486737 -1.1836818 -0.18545257 -0.3996568 -0.2232923 -0.51147324 -0.377519 -0.24264371 -0.09404492 -0.72766167 1.8864392 -0.31015038 0.6684381 1.5125713 -0.11865957 -0.5626158 1.3606731 -0.29321033 -1.4945563 0.27767915 -0.34325728 -0.07554926
405 -0.5755078 -0.42565084 4.224885 -0.39226678 -1.9438692 -0.11187539 -0.15034145 -0.42394868 -1.3096036 -2.874365 -0.5859777 -1.0114994 -0.08089092 -1.0442636 -1.0773801 -0.5484843 -0.7361934 -1.7539101 0.12031398 -0.13799265 0.6852637 4.2342434 -0.1903431 -1.1303529 5.870626 -0.6241611 -3.6573815 -0.5662694 -0.28149518 -0.4884924
199 -0.27314386 0.29491374 2.059296 -0.18343739 -0.77635735 3.7469544 0.22674412 -0.18000063 -0.38095245 -1.129517 -0.17298089 -0.37684286 -0.21623068 -0.5196125 -0.4440062 -0.22277918 -0.27647525 -0.6876508 1.8965818 -0.27050063 0.7495483 2.2975578 -0.23078723 -0.51649994 1.1201918 -0.26029107 -1.5704101 1.0693694 -0.32842883 -0.17565681
854 -0.0322418 -0.03430478 0.25453085 -0.035719484 -0.13263063 0.13591687 0.0011869315 -0.03264108 -0.08200469 -0.14719182 -0.027938811 -0.069254324 -0.023367187 -0.057104368 -0.072172776 -0.017847208 -0.05953551 -0.12784886 -0.01242667 0.030368656 0.06265075 0.1587482 -0.0072867214 -0.03742054 0.32275632 -0.020445805 -0.20950006 -0.025631456 -0.013380063 -0.039755102
49 -0.07814822 -0.06535781 0.91374683 0.18777779 -0.19240852 0.46234202 -0.08222178 -0.016506415 -0.1056345 -0.37751806 -0.024629204 -0.1468846 0.6312966 -0.14074217 -0.22836757 -0.052716207 0.3285091 -0.2991726 -0.043862816 -0.043113135 0.9035615 1.2561038 -0.107468866 -0.15406696 0.42586213 -0.11907311 -0.5915458 0.084637165 0.39639682 -0.041912924
415 0.007794503 -0.012936436 0.31387264 0.3300719 -0.039720118 0.27849713 0.5463549 -0.023346467 0.48946035 -0.015607297 -0.05620817 -0.04664926 0.059601672 -0.097887 -0.06275176 0.8911092 0.28379038 -0.08011429 -0.0014589772 -0.023465626 0.10590587 0.33572292 -0.0072442703 -0.051547676 -0.07308698 -0.004744494 0.069445655 -0.05743314 -0.041123983 -0.04587628
155 -0.43983147 -0.16085911 3.350983 -0.18646891 -1.2942078 0.10889339 -0.0800389 -0.22665484 -0.8329325 -1.8308896 -0.32417607 -0.7001817 -0.08095895 -0.66824174 -0.69068724 -0.35976812 -0.44073495 -1.1231626 0.37293136 -0.15849736 0.6315144 2.6738417 -0.14773896 -0.8080366 3.319519 -0.38929254 -2.3434122 -0.29668686 -0.20434777 -0.2668749
410 -0.08039256 -0.042572197 0.51465243 -0.07448006 -0.18319225 0.10276228 -0.03046072 -0.046117526 -0.11969862 -0.28230605 -0.04062515 -0.107855655 -0.030757451 -0.103463225 -0.10681882 -0.050635744 -0.07654285 -0.1894226 -0.0020876215 0.013113432 0.21495499 0.5253885 -0.023869283 -0.105711415 0.53071576 -0.026189262 -0.35557115 -0.048482873 -0.04566175 -0.055732477
723 0.9712685 -0.0147124855 -0.057751466 -0.13665783 -0.19727767 -0.10536714 -0.06150041 0.8604415 -0.2044067 -0.09991258 -0.120279826 -0.19491147 -0.09340587 -0.077604875 -0.21565902 1.3944236 -0.24979372 -0.21774165 -0.026192455 1.4252224 0.4949906 0.14114097 -0.23808424 -0.07676279 0.83632445 -0.12237102 -0.47264892 0.49176022 -0.114639245 -0.017252054
789 -0.038750447 0.16635518 0.49303937 -0.018026484 -0.2105705 0.31037226 -0.005580684 -0.018056545 -0.19349067 -0.35363257 -0.029357856 -0.16070746 -0.008040681 -0.15270852 -0.1609521 -0.040125046 -0.026770685 -0.16342962 0.3214966 -0.0067232014 0.50689125 0.48582125 -0.07909467 -0.13550602 0.545639 -0.098997585 -0.43225485 0.073513836 -0.023222832 -0.0583627
836 -0.086000115 1.0953499 0.011434892 -0.09600766 0.1331722 0.85059595 -0.002440946 0.072375335 0.062475123 -0.013870842 0.3998247 -0.0015544568 -0.023846177 -0.0037378967 -0.043603264 -0.026627792 0.018585924 0.21919638 0.29274344 -0.056944277 0.45995432 0.009474035 -0.1020332 -0.022726404 0.23347025 0.11899152 -0.04944691 0.19496775 0.28906605 0.15335943
493 -0.46112448 1.779348 3.4052474 -0.27460453 -1.2880379 2.8439324 0.11458069 -0.24531005 -0.80452013 -2.0944383 -0.11942404 -0.6187567 -0.0696884 -0.9245283 -0.8604294 -0.4446226 -0.2457439 -1.1375074 2.4770205 -0.112610534 3.1603966 2.6813877 -0.4538066 -0.97148865 4.1808143 -0.60071313 -2.6033475 0.52954316 -0.28567317 -0.21092251
484 -0.09935958 1.051811 1.1091762 -0.037403185 -0.2178891 1.203699 0.39994478 -0.04816109 -0.22738902 -0.48517042 -0.00064963737 -0.1749988 0.18102594 -0.16087762 -0.22738777 -0.087931454 -0.03566197 -0.26332304 1.1987307 -0.012155828 0.8601784 0.26897907 -0.14189382 -0.21379487 0.9813606 -0.1224102 -0.54877377 0.33740345 -0.004832872 -0.08236539
672 -0.071593046 0.58883494 0.24967839 -0.046497542 -0.2493274 -0.03802752 -0.014394152 0.42864454 -0.17859624 -0.22210501 -0.103290536 -0.1374201 -0.013377801 -0.10765415 -0.19048756 0.043999016 -0.10876828 -0.15388836 -0.035148602 -0.042663045 -0.03802385 0.2135213 -0.043683138 -0.09347861 0.387293 -0.02794174 -0.4456044 -0.018385053 0.16159122 -0.082150534
872 -0.11800303 -0.05093443 0.6862142 -0.014408692 -0.1508904 0.23715639 -0.0035294082 -0.010222094 -0.12213816 -0.30219206 -0.07720934 -0.13915563 -0.06731309 -0.10843513 -0.105777316 -0.041864645 -0.080710135 -0.23177584 -0.005744186 -0.033213984 0.16737045 0.7455128 0.12559876 -0.16462289 0.3212821 -0.033320513 -0.45925424 -0.02571018 -0.070416 -0.07293189
539 -0.029989472 -0.011395137 0.46358395 -0.042408407 -0.12627064 0.19236451 -0.008692001 -0.039607566 -0.082553454 -0.23713295 -0.03660788 -0.090250224 0.03185133 -0.06985261 -0.07370023 -0.03536983 -0.041380007 -0.15512168 0.04261685 -0.042537753 0.23042026 0.25812596 -0.029618403 -0.08174427 0.33036053 -0.041776937 -0.28046557 -0.030579189 -0.050745793 -0.032113753
843 -0.0028482103 0.28761983 -0.02181473 0.10653176 -0.054146297 0.43218988 -0.011688091 -0.028413085 -0.01827829 -0.018484438 -0.00527713 -0.014613046 -5.125068e-05 -0.007919357 -0.022808984 -0.03352957 -0.021515697 0.31751046 -0.009991685 -0.038904328 0.0150096 -0.030655105 -0.04278754 0.10806567 0.2596637 -0.006695904 -0.018717324 -0.02122354 -0.005330017 0.06583496
176 -0.24966347 0.36326987 1.1112618 -0.16262214 -0.50872135 1.4663762 0.14202306 -0.13484801 -0.35447463 -0.9599242 -0.13302922 -0.28268373 -0.16740432 -0.3931794 -0.3325547 -0.16573368 -0.093026765 -0.43441567 1.1471621 -0.0602353 1.0868447 1.0334218 -0.13162199 -0.41518363 0.76189727 -0.32023457 -1.1215595 0.22389334 -0.23708014 -0.053434443
376 -0.28676647 -0.013235536 4.037384 0.18105486 -0.49230766 1.9997145 -0.010507762 -0.08165946 -0.80108404 -1.1915641 -0.19978105 -0.5903731 -0.13738081 -0.5233552 -0.49346048 -0.069998756 -0.034147702 -0.94025785 0.62720233 -0.29329553 -0.046922937 0.5809819 2.5234485 -0.6632344 0.54012024 -0.25644684 -1.5260955 -0.27726516 -0.21753183 -0.17142488
671 -0.19586365 -0.16797575 1.2700889 -0.06704763 -0.56199384 -0.13078868 -0.107856035 -0.10650816 -0.42057443 -0.9266 -0.21867858 -0.32330367 0.057067685 -0.27930146 -0.25449225 -0.15912612 -0.25413212 -0.44730243 -0.035124708 0.13616748 0.22727178 1.1363614 -0.12132366 -0.30357417 1.4721541 -0.18226431 -1.1224201 -0.20259821 -0.086134136 -0.110866405
670 0.16755408 0.18491839 0.1837645 0.17423257 -0.05074081 0.063276105 0.06682015 0.2147435 -0.054698158 -0.07917045 0.13086206 -0.042869683 0.4626417 -0.05677944 -0.06880685 0.21144466 0.2639367 -0.063493975 0.19963008 0.22180441 0.39191258 0.12430659 -0.016195927 -0.009838249 0.24718006 -0.04064938 -0.07587673 0.16215861 0.42736298 -0.02784091
393 -0.39072046 -0.18362938 5.638478 -0.14712879 -0.85458845 2.1660461 -0.07454896 -0.114094876 -1.170945 -1.8351367 -0.18837117 -0.8354244 0.4545299 -0.8124165 -0.8846577 -0.33353907 -0.020390842 -1.579259 0.8830495 -0.3432642 1.08606 2.096761 1.9867046 -0.9941026 2.193611 -0.3486754 -2.4985156 -0.39863905 -0.061544247 -0.31896716
689 0.10576411 0.23835684 0.30831295 0.10475095 -0.055833932 0.34560686 0.13773237 0.059942342 -0.046468407 -0.12774682 -0.003666744 -0.050042626 0.1923984 -0.06587206 -0.07733401 0.10462211 0.051413875 -0.08386241 0.39443368 0.20219997 0.45299143 0.21157685 -0.060772937 -0.04829778 0.30963945 -0.04763292 -0.14167483 0.38175777 0.09935962 -0.06504263
549 -0.49487326 -0.39199635 3.0284245 -0.20765539 -1.1600525 -0.25331366 -0.13971493 -0.021020731 -0.71157634 -1.8429717 -0.29762003 -0.8224069 0.81446123 -0.5408961 -0.6327178 -0.4608136 -0.51434755 -1.3086323 -0.062010624 1.5431705 1.3903813 4.2655263 -0.23944743 -0.82070285 3.7128925 -0.30908525 -2.449402 -0.42006633 -0.21304634 -0.3644333
853 0.009129591 0.004348114 0.17983823 -0.006998364 -0.01900656 0.104971774 0.073427305 0.0024370141 -0.02351907 -0.04847806 0.010600837 -0.026178524 0.051123768 -0.032855105 -0.03288233 0.010342754 -0.0028733977 -0.041015603 0.034081116 0.07032691 0.18059427 0.10222465 -0.007948458 -0.00913424 0.12368123 -0.005123964 -0.051163044 0.06306693 0.026798222 -0.0166366
338 1.3257192 -0.19105308 2.257364 -0.023065543 -0.87600917 -0.21517904 1.8873055 -0.14026739 -0.8827468 -1.624317 -0.18446146 -0.553831 2.2976832 -0.70481795 -0.84153885 -0.08741397 -0.16640267 -1.2216611 1.9623612 2.3190012 2.9358869 2.458731 -0.31510636 -0.48605052 3.676998 -0.37002626 -1.9792136 -0.10130793 1.990184 -0.6549379
280 -0.5162453 0.89851135 4.525984 -0.39313576 -1.9558057 3.85877 0.29066056 -0.43769017 -1.222142 -2.8179526 -0.33387867 -0.90393203 -0.3649436 -1.2250872 -1.0933686 -0.6152786 -0.54913485 -1.408697 2.8759444 -0.42954016 1.6737142 3.5419183 -0.3729509 -1.3410718 5.449417 -0.79297143 -3.3995838 -0.17860131 -0.52080405 -0.3744483
441 -0.16749166 1.4116374 1.1235509 -0.042926203 -0.7330118 -0.120193265 -0.010474277 2.0570264 -0.53121775 -0.7620105 -0.31592733 -0.44920155 -0.122905545 -0.2569411 -0.5876751 -0.1324299 -0.3783654 -0.5661169 -0.09093581 -0.21568476 -0.08118182 0.6222511 -0.1548874 -0.4295802 1.2719386 -0.20920408 -1.4965446 -0.16506316 0.12580122 -0.24857736
969 -0.024396455 -0.010478924 0.055434592 -0.01863547 -0.047078647 -0.008911502 -0.00784529 -9.918884e-05 -0.035955843 -0.072387844 0.003941588 -0.02551249 0.09174884 -0.029906407 -0.036012206 -0.0060889395 -0.02455387 -0.046648882 -0.005008641 0.06760463 0.08886652 0.15283707 -0.02055232 -0.020592999 0.1591356 -0.008269119 -0.089485325 -0.014918578 0.0015651882 -0.0094134575
905 -0.08229132 -0.0933581 0.17194377 0.17428902 -0.05681888 -0.04173628 0.0829853 0.04614415 0.2743619 -0.18025666 0.060053922 -0.149334 -0.03227237 -0.068088286 -0.059749793 -0.087788485 -0.032096878 -0.11142129 -0.07514494 0.14355189 0.20959982 1.2526474 -0.019523969 -0.12606743 0.44524193 0.15164503 -0.23393594 -0.02662409 -0.08764174 -0.06893253
720 -0.13800924 1.825326 -0.12060072 -0.107444264 -0.25998712 -0.11126315 0.2137579 2.0149875 -0.14274617 -0.0540948 -0.17325531 -0.14492749 -0.16073535 0.05541564 -0.2766331 0.044216767 -0.26215515 -0.07776741 -0.12761076 -0.20350213 -0.14987932 -0.07575451 -0.10420306 -0.07702274 -0.041266043 -0.028957248 -0.5608097 -0.13291015 0.2330497 -0.09983563
452 -0.15149556 2.3474128 -0.05445495 -0.09112859 -0.4120638 -0.21051681 -0.05388219 2.7915359 -0.32364643 -0.19987144 -0.331409 -0.2294817 -0.21162152 -0.12382088 -0.49026632 -0.023045203 -0.37412682 -0.25341147 -0.123452246 -0.3103331 -0.15387775 -0.03399658 -0.22458966 -0.20784982 -0.048918024 -0.093315974 -1.0522256 -0.1939617 0.28452137 -0.17898409
424 -0.5435324 -0.37703386 3.8610485 -0.38464123 -2.1265838 -0.13587856 -0.13626705 -0.65726155 -1.4549431 -3.080968 -0.60231656 -1.1004769 -0.07750977 -1.1109976 -1.2090069 -0.5887077 -0.8295603 -1.7935629 0.36911032 -0.33663282 0.6214461 3.6134293 -0.41992322 -1.3234729 6.2126384 -0.70452434 -4.0455384 -0.66907114 -0.2823597 -0.43554947
235 -0.1716222 -0.1401956 0.26894855 -0.012502153 -0.34257838 -0.14707232 0.5495226 -0.06615647 -0.28496617 -0.5864866 -0.1947621 -0.21007597 0.15004833 -0.09749197 -0.21868601 -0.06996764 -0.23402591 -0.35827655 -0.08027633 0.4742319 -0.013290097 1.1961744 -0.055133726 -0.26255322 0.5002975 -0.11839545 -0.7392492 -0.17273955 0.14771406 -0.20109418
444 1.6097616 -0.17639235 0.13492872 -0.20686881 -0.2144037 -0.21078765 1.7647457 -0.26354855 -0.37332246 -0.8377456 0.038586408 -0.15513803 0.06779229 -0.2930085 -0.41412613 -0.15912347 -0.27256393 -0.5657241 0.9171115 1.4140348 3.1732225 1.2672305 -0.31221008 -0.082733445 2.1057186 -0.26296654 -1.0203067 -0.19924815 0.40708086 -0.3154528
705 -0.057970252 0.05395146 0.087037414 -0.03891791 -0.14289856 0.30330554 -0.06574161 -0.04374159 -0.10403359 -0.17503029 -0.029932747 -0.07117026 -0.04043281 -0.07617248 -0.065444075 0.008013774 -0.07223496 -0.070126675 0.04566007 -0.031034058 0.18058257 0.30455837 -0.08106653 -0.07402402 0.27440947 -0.07666669 -0.2631981 0.07105489 -0.047621537 -0.017821772
181 -0.4243279 -0.0304809 3.8809166 -0.07305273 -0.5590733 2.2280383 0.0920555 -0.161222 -0.81236595 -1.398437 -0.24700569 -0.5851548 -0.23319116 -0.54540926 -0.54696876 -0.29089114 -0.04837602 -1.06506 1.289492 -0.40451542 0.093113355 1.098454 1.8687054 -0.7628979 0.8176225 -0.28962436 -1.7921956 -0.27237302 -0.29054016 -0.17032622
263 1.9622909 -0.28851733 1.5838485 -0.35320017 -0.5360653 -0.18399607 2.7437558 -0.4486197 -0.7239449 -1.4637517 0.06055841 -0.35642818 0.2638164 -0.5316484 -0.7005556 -0.34616014 -0.35032183 -1.0663028 1.6217657 1.6543882 4.563775 2.1826785 -0.40447083 -0.30263695 3.876459 -0.3873356 -1.7362665 -0.31180292 0.35709932 -0.549751
151 1.182989 -0.09770951 1.6150922 0.35841197 -0.6184414 -0.3775157 2.1107128 -0.1494309 -0.67218393 -1.3878548 -0.19851057 -0.4179914 3.0529418 -0.5853294 -0.65328705 -0.10095334 -0.08468573 -1.0329446 1.8714911 3.0486004 2.414347 1.6443865 -0.30864897 -0.34135148 2.5093956 -0.3276404 -1.5742515 -0.12680404 1.8069006 -0.536086
386 -0.063805014 -0.011573809 0.8409481 0.04365638 -0.05300503 0.41385892 0.00045012124 -0.013203486 -0.14483066 -0.19024715 -0.04520188 -0.10051215 -0.031624835 -0.10322397 -0.10698127 -0.044396143 -0.0044019753 -0.21267931 0.34070957 -0.04281802 0.055415884 0.17286065 0.46480152 -0.08360186 0.062029745 -0.021052705 -0.28002912 -0.0124258315 -0.043675624 -0.022812314
786 -0.10810411 -0.01740945 0.47540647 -0.022880139 -0.15127984 0.033749167 0.044203475 0.05653569 -0.12490081 -0.26964435 -0.035669424 -0.10474565 0.069584675 -0.09166891 -0.103988044 -0.028881593 -0.063030794 -0.18179457 0.057485454 0.27481994 0.2965784 0.540564 -0.015153281 -0.084598206 0.34538436 -0.018293055 -0.37172073 -0.023837296 -0.011443336 -0.07337464
364 -0.037283123 -0.06755954 0.46376556 -0.042854983 -0.15504406 0.15195002 -0.031111134 -0.052712686 -0.120932296 -0.2015628 -0.02418641 -0.076197 0.069821276 -0.06757937 -0.07076798 -0.056872487 -0.035792228 -0.16023235 0.00063028187 -0.027577937 0.26273876 0.46608907 -0.027841127 -0.073232554 0.4012747 -0.044445302 -0.27814457 -0.020865444 -0.012986476 -0.06181662
596 -0.060981523 -0.059742153 0.22013287 -0.023236284 -0.07084111 -0.026962271 -0.012498108 -0.044237327 -0.04785293 -0.12500955 -0.027359042 -0.056129653 -0.0032408615 -0.04234868 -0.036793754 -0.04673839 -0.041375734 -0.11489945 -0.0027831967 -0.01825869 0.0645831 0.40514034 -0.04234212 -0.0534808 0.23699252 0.009224519 -0.1584461 -0.05390025 -0.024640424 -0.030652745
903 -0.030323848 -0.008089101 0.4098741 -0.0045509785 -0.036262613 0.14889897 0.0084647965 -0.042592585 -0.05398171 -0.08378369 -0.018581156 -0.0025871706 -0.024715193 -0.0363211 -0.04572383 -0.02961553 0.03260761 -0.072304845 0.18228579 -0.035665747 0.03638867 0.031770274 0.14299181 -0.02100039 -0.014618251 0.02216132 -0.075517364 -0.006929237 -0.03632691 -0.004266117
643 -0.07563765 -0.071815565 0.68276286 -0.00022298247 -0.19439805 0.20315625 -0.0586648 -0.04158881 -0.1999721 -0.41455007 -0.054240998 -0.12517199 0.281297 -0.1515642 -0.15822765 -0.067055 -0.04121828 -0.26420376 0.10628287 0.030996673 0.63591367 0.5924945 -0.07984473 -0.15497158 0.43297818 -0.12850884 -0.485428 0.061220724 0.15311633 -0.03831968
487 -0.066570126 1.323298 -0.0062255515 -0.07635831 -0.09542904 -0.05009172 0.041862547 1.4980245 -0.10810679 -0.07357495 -0.08110767 -0.1249937 -0.08826986 -0.099473946 -0.20682016 -0.029556358 -0.11135385 -0.11454723 -0.013874258 -0.12035992 -0.042396877 -0.022247044 -0.04741023 -0.05580291 -0.04625992 0.059414383 -0.36725506 -0.11255993 0.451316 -0.084179066
149 -0.25323668 -0.022201765 1.7253988 -0.08203446 -0.43481898 1.607284 -0.07643256 -0.1813379 -0.31152633 -0.71558446 -0.121120945 -0.19383816 -0.14495432 -0.30630395 -0.22648685 -0.17768021 -0.0655841 -0.46194267 0.72899675 -0.16867709 0.21852 0.69550914 0.24753702 -0.3678813 0.4683028 -0.19981128 -0.8210766 -0.05874287 -0.20893852 -0.03790127
333 -0.01414925 -0.6765929 4.51207 -0.53419393 -1.6635555 -0.07932355 2.3499413 -0.78402996 -1.3849806 -2.9367464 -0.23089688 -0.96413565 -0.07727437 -1.1972002 -1.245058 -0.6356614 -0.5424122 -2.1412342 1.4261335 1.7672851 5.350311 4.29554 -0.34917417 -1.0599194 7.5417414 -0.6515519 -3.5282204 -0.59097046 -0.06242114 -0.76305646
114 0.5816949 -0.7046664 3.4693434 -0.706296 -1.8520533 -0.26361498 2.18338 -0.9394003 -1.5807805 -3.1145782 -0.45112973 -0.97846586 -0.15326276 -1.1687285 -1.3322715 -0.8076965 -0.792572 -1.9964322 1.1406077 0.8287999 5.311758 4.86845 -0.52387136 -0.972684 9.035472 -0.7155346 -3.823613 -0.8280732 0.151617 -0.7173725
570 0.21680927 1.4543672 0.13448495 0.46395594 -0.17296079 -0.16034007 0.41493168 2.6730924 -0.15192361 -0.027375082 -0.16092113 -0.12164419 -0.018121036 -0.026536947 -0.3192198 0.33549523 -0.13404377 -0.19561084 0.072285265 -0.04815199 0.0023748493 0.24413419 -0.18133631 -0.11447728 -0.071402 -0.06657023 -0.5543425 -0.07020466 0.1828803 -0.22921948
205 -0.10948352 1.0076487 0.9596765 -0.18354271 -0.37877873 2.4134328 1.2639868 -0.107143596 -0.21131913 -0.6751954 -0.05082788 -0.20895536 -0.15869828 -0.3053985 -0.3271496 -0.09660905 -0.2131569 -0.41590968 1.6935772 -0.1582551 0.88607603 1.1373112 -0.20042267 -0.29438555 0.7901122 -0.14742869 -0.85964996 0.82476175 -0.13549855 -0.13620411
950 -0.28424522 -0.12290801 1.1256993 -0.06959704 -0.70864624 -0.13446462 -0.0026411412 -0.052321326 -0.47940603 -1.0068874 -0.256368 -0.41294035 -0.061051335 -0.37266687 -0.44143245 -0.120673455 -0.2613342 -0.6075012 -0.02153731 -0.0025153502 0.068984084 1.4412711 -0.0934451 -0.4204856 1.5521076 -0.2659761 -1.4635243 -0.2253745 -0.06023502 -0.21931337
380 -0.3478978 -0.042564224 3.326357 -0.087356694 -0.2866579 2.2057316 0.07517445 -0.06827993 -0.5583121 -1.0227269 -0.17526247 -0.444692 -0.23073821 -0.4311009 -0.3969908 -0.1777976 0.15553541 -0.83895695 0.9722487 -0.21178842 0.36295888 1.3064072 1.7396284 -0.5972167 0.20065734 -0.16925682 -1.3013328 -0.1250627 -0.21539143 -0.090248875
499 -0.41291577 3.978832 -0.116846524 -0.37982664 -0.45703325 -0.13842843 -0.052319158 2.0363965 -0.30708587 -0.1232928 -0.37836117 -0.19339947 -0.37704867 -0.19669934 -0.43577486 -0.029612252 -0.49434766 -0.18072967 -0.20200212 -0.42274523 -0.31030026 -0.068882465 -0.12463466 -0.28101644 -0.04386641 -0.018101703 -1.0140823 -0.23397271 0.2797009 0.047860418
425 -0.21342337 2.3702729 1.2666028 0.018784352 -0.64337325 2.5335872 0.089729905 -0.03529805 -0.42169148 -0.9926098 -0.015265065 -0.27953857 -0.021339549 -0.39314258 -0.3958685 -0.056522466 -0.17100926 -0.47331125 1.8796636 -0.09612308 2.1002722 1.0984123 -0.4112501 -0.38791296 1.31374 -0.44759947 -1.29458 0.7559476 -0.16090705 -0.119656384
40 2.0820572 -0.11518697 1.6537659 0.3765738 -0.6237587 -0.5455586 3.7887192 -0.22180359 -0.7641591 -1.7076861 -0.10061872 -0.47141185 3.8690336 -0.73759097 -0.90344137 -0.11515774 -0.11169734 -1.4897376 2.975733 4.368792 4.082408 2.4503322 -0.49971485 -0.4066618 3.0423126 -0.3369275 -2.026771 -0.29436085 2.4345958 -0.76077867
303 -0.62856114 -0.23412524 3.6843362 -0.30496892 -1.7620825 -0.14572695 -0.08859836 -0.3901398 -1.16437 -2.3925471 -0.52351415 -0.93571943 -0.19162749 -0.7938318 -0.9567229 -0.19335902 -0.7138096 -1.6570014 0.06425653 0.45866343 0.47193545 3.4447362 -0.13457763 -0.84128565 4.063386 -0.47654682 -3.1673923 -0.43420067 -0.18552026 -0.6124598
839 -0.026584733 -0.0038138889 0.2708134 0.0028736554 -0.03221622 0.16904947 0.0020292941 -0.01631169 -0.056080826 -0.08459291 -0.02226681 -0.031097475 -0.0044978242 -0.035811327 -0.037674986 -0.004778442 -0.002046901 -0.06679645 0.14155611 -0.0040505487 0.10260573 0.09496835 0.013870671 -0.022827964 -0.001050339 -0.00884512 -0.10967481 0.04657506 -0.023583764 -0.013263668
451 0.13052365 0.84448534 0.035071567 0.20800006 -0.18290435 -0.049328838 -0.009014532 1.4468864 -0.17250067 -0.12897834 -0.101458445 -0.13356884 -0.026068578 -0.06566882 -0.21828707 -0.013061866 -0.08039399 -0.12940708 -0.027362878 -0.056942414 -0.01977646 0.033943735 -0.06953486 -0.080165595 -0.023395503 -0.05236409 -0.4123257 -0.059194367 0.31530085 -0.15112965
545 0.30315298 -0.036404375 0.6265961 0.108490534 -0.37419233 -0.29034963 1.1414129 -0.13623124 -0.37613305 -0.71345156 -0.15319628 -0.2096018 1.7943515 -0.3164647 -0.3610345 -0.047894266 -0.0644894 -0.52058864 0.8265779 1.6465452 0.7727967 0.8213033 -0.12941481 -0.1794457 1.5099461 -0.12537552 -0.82960886 -0.14703022 0.9585023 -0.25609586
446 -0.26913056 -0.13786031 0.6000054 -0.18089664 -0.37508008 -0.116492786 -0.07603248 -0.095228545 -0.26311535 -0.52282596 0.12626567 -0.14110774 2.9824831 -0.18348232 -0.31536445 -0.13947742 -0.07255485 -0.46107665 -0.03641754 -0.12179803 0.25284502 0.6403329 -0.13339314 0.032524258 0.82294625 -0.025501525 -0.8354656 -0.117622174 1.8013026 0.102511235
680 -0.011068112 0.010146257 0.1457949 -0.00018895567 -0.021369958 0.03159993 0.00025325827 0.0076893084 -0.031985804 -0.053822186 -0.004852745 -0.031780485 0.09927591 -0.020902982 -0.038324945 0.004307352 0.0058558695 -0.050141543 0.043915205 0.024952326 0.15292184 0.04175414 0.006079845 -0.009029134 0.032460943 -0.007431719 -0.07919792 0.010184102 0.03050169 -0.012103183
144 -0.09765778 -0.07217934 1.0036736 -0.04937104 -0.22009647 0.2620258 -0.052644607 -0.054755688 -0.16930795 -0.3446082 -0.015743824 -0.106108025 0.33100352 -0.12250133 -0.16337219 -0.08437293 -0.016552273 -0.29320914 0.13329679 -0.045896024 0.57640266 0.7686774 -0.027545257 -0.15964894 0.42795575 -0.043353416 -0.47391793 -0.016632278 0.009202991 -0.05690169
685 -0.46528107 -0.25159118 0.60723174 -0.0077973776 -0.9803402 -0.24990618 -0.14866936 -0.33825275 -0.49601385 -1.035815 -0.48773834 -0.55707353 -0.2550626 -0.2721711 -0.4749697 2.2364051 -0.4335877 -0.90266985 -0.16682124 2.254803 -0.12302891 0.66366464 0.27830803 -0.085709855 1.2619522 -0.18895282 -1.7024237 -0.1888725 -0.03886677 -0.34404314
603 0.26057783 0.10605061 0.2350219 0.28664672 -0.039248813 -0.0065238723 0.3912896 0.23485845 0.090899676 -0.06516997 -0.007650824 -0.04900292 0.25530604 -0.07036752 -0.07265703 0.5919789 0.3520159 -0.058481663 0.0689046 0.2817979 0.30713892 0.11752419 -0.0008075312 -0.021283887 0.19569062 -0.032927167 -0.044580128 0.08845124 0.2066787 -0.047219705
639 -0.07436567 -0.03202715 0.3305062 -0.010623457 -0.065409176 -0.029103601 0.23978227 0.012072619 -0.07388928 -0.21293986 -0.063422784 -0.05218041 0.2057062 -0.05812907 -0.075183414 -0.019350573 -0.05152592 -0.1860762 0.11848564 0.3831004 0.39216715 0.55154526 -0.01685205 -0.06552119 0.1609668 -0.051503863 -0.23865233 -0.008809785 0.08383556 -0.059919216
202 -0.041520983 0.008658301 0.28027812 -0.017612724 -0.1345491 0.3502677 0.023371497 -0.029174244 -0.060735404 -0.19978951 -0.03698484 -0.07538094 0.0021972228 -0.09655419 -0.080677666 -0.037648354 -0.032901358 -0.081011154 0.24697751 -0.020169152 0.29993546 0.40072086 -0.0739905 -0.08368447 0.18483984 -0.058322083 -0.25898054 0.26760417 -0.048178 -0.0010811719
876 0.025217399 0.021160092 0.169396 0.01634071 0.039059386 0.022560554 0.1598334 0.078348406 -0.027429834 -0.012775731 0.068036444 -0.029085098 0.18711922 -0.027658332 -0.03783688 0.030495211 0.024260413 -0.057154596 0.055502124 0.15851411 0.22474974 0.2323367 -0.0024604374 -0.0040329206 0.17844293 -0.0060901865 -0.02364726 -0.0071359663 0.2402217 -0.05050857
469 -0.011547582 -0.13708644 0.78072417 -0.03933203 -0.30523905 -0.12544265 0.122846276 -0.039380938 -0.28147218 -0.5876871 -0.12637722 -0.2576452 -0.01147966 -0.21253173 -0.25556245 0.16575503 -0.120197825 -0.36304042 0.1421884 0.98719794 0.8339794 0.99574536 -0.034340546 -0.19182555 0.9159356 -0.13344862 -0.7892207 -0.011873192 0.010219414 -0.18422668
461 -0.28594777 -0.18736976 0.54319656 -0.17686361 -0.35895762 -0.13504435 -0.12338984 -0.1385974 -0.19697504 -0.40882716 0.17046678 -0.13513687 2.8939192 -0.11124213 -0.24633487 -0.16799212 -0.08201327 -0.39058945 -0.05945455 -0.17381273 0.037668787 0.7055194 -0.15739761 0.07090975 0.7861306 -0.016467195 -0.719115 -0.18627231 1.843941 0.253903
48 2.1291373 -0.35901532 1.2841117 -0.14684871 -0.5723501 -0.42233333 2.445337 -0.31866044 -0.7843768 -1.6134304 -0.07549946 -0.41501078 1.5761557 -0.5629136 -0.75377476 -0.2714332 -0.3030008 -1.1312078 1.4591992 2.7635167 4.5444756 2.32677 -0.41585875 -0.25084153 3.2599196 -0.48643738 -1.934046 -0.24273734 1.5302497 -0.5753945
264 -0.16881837 2.2053728 -0.06475942 -0.037385114 -0.42927742 -0.16384141 0.0950931 2.8777366 -0.2779301 -0.22444747 -0.3006384 -0.22014657 -0.23615165 -0.06405152 -0.425949 -0.03459146 -0.32726374 -0.23181728 -0.09869864 -0.25043246 -0.124847785 -0.009991444 -0.17138244 -0.21650994 -0.06738391 -0.120238505 -1.0069841 -0.19717391 -0.018245323 -0.20539819
844 -0.0035084963 -0.00032261162 0.14534767 -0.0062666135 -0.042358782 -0.012774222 0.08672792 -0.0068198293 -0.06894362 -0.080160365 -0.010092934 -0.026809713 0.20959432 -0.041273914 -0.075863756 0.051929846 -0.0153280115 -0.0876941 0.08645592 0.23129213 0.29310992 0.26325905 -0.017456956 0.015849441 0.18154837 -0.0062305913 -0.119313836 0.04865287 0.24700333 -0.034936875
579 -0.23803811 -0.1750816 0.6216665 -0.14966963 -0.28646454 -0.0673637 -0.0833271 -0.105824605 -0.19857289 -0.3887708 0.26493403 -0.101596914 2.588734 -0.13137132 -0.23100045 -0.13485382 -0.05073067 -0.37672395 -0.011591139 -0.11487174 0.28954393 0.5828448 -0.120196484 0.06227693 0.6871787 -0.017252065 -0.65272504 -0.14464931 1.458825 0.32338232
796 -0.012873574 -0.028209059 0.27556092 -0.020192236 -0.0757508 -0.0040583974 -0.004792635 -0.017211907 -0.057523537 -0.11834041 -0.036804598 -0.04561047 0.1779273 -0.04937654 -0.0689119 -0.0021332651 -0.00924804 -0.11095216 0.04167115 0.054774232 0.30343902 0.23567125 -0.029881582 -0.041625716 0.2534836 -0.024626248 -0.18028057 0.0052462816 -0.0038426735 -0.025868494
933 -0.17328891 -0.06571217 0.42185095 -0.11564399 -0.26201934 -0.06302746 -0.047757104 -0.033243377 -0.18447982 -0.33359125 0.173121 -0.08595183 2.2838655 -0.10649598 -0.24342532 -0.101524286 -0.031768218 -0.30542478 0.093344726 -0.08314216 0.38682047 0.35260904 -0.114073835 -0.0012124435 0.7741009 -0.05611482 -0.5718295 -0.052473422 1.4737817 0.1416913
495 -0.3310338 -0.17261253 4.0648866 -0.13484421 -1.2060302 0.98929155 -0.049713578 -0.10109591 -0.7705117 -1.7225287 -0.18759106 -0.7288644 0.078791104 -0.7124173 -0.7303627 -0.3503943 -0.24296908 -1.1851084 0.5761803 -0.12291061 1.2289443 3.5211458 -0.023964996 -0.88265973 4.111959 -0.30836326 -2.0909116 -0.16070066 -0.12583125 -0.39357463
475 -0.012317401 -0.015460089 0.11169564 -0.015088866 -0.032858673 -0.015240359 0.029686475 -0.0067998245 -0.04015816 -0.091003224 -0.02321234 -0.042361274 0.020527223 -0.025086576 -0.042311653 -0.0024407462 -0.021627352 -0.052009262 -0.0011076011 0.09374038 0.13069533 0.17103493 -0.007825149 -0.03140716 0.08428103 -0.008334072 -0.10813408 -0.024133319 0.044992108 -0.024770902
525 -0.20925684 3.7363598 -0.1242182 -0.18929447 -0.48118958 -0.17363279 0.3120537 3.0951676 -0.3240484 -0.054127574 -0.33642265 -0.23452683 -0.2522393 -0.14373998 -0.5456437 0.15373257 -0.34433267 -0.17393339 -0.15145129 -0.34758934 -0.2518181 -0.0047852336 -0.17153388 -0.21578912 -0.0006376781 -0.060011398 -0.96758586 -0.11924382 0.8490866 -0.19189523
688 -0.0017585143 0.12232478 0.06943768 -0.006314592 -0.029312773 0.09789483 0.019888846 -0.0022543387 -0.022617577 -0.03424878 0.0015270887 -0.020869428 0.048983775 -0.027719334 -0.029678676 -0.007836553 -0.0056436453 -0.027017185 0.059556887 7.916242e-07 0.13812308 0.08462766 -0.018347722 -0.0012154654 0.08880691 -0.008526035 -0.050547596 0.058693822 0.036309276 -0.021373322
589 -0.09672036 -0.100361764 1.4137335 -0.0747656 -0.31547615 -0.009265336 -0.021422489 -0.0505789 -0.26867518 -0.5100458 -0.044839323 -0.26815856 0.31238276 -0.22035758 -0.2682944 -0.13586119 -0.08109996 -0.48444977 0.20010543 0.26639375 0.725116 1.3581889 -0.01079491 -0.2552777 1.2257892 -0.08582767 -0.69937867 -0.08485257 0.09979567 -0.17509595
287 -0.13686277 -0.14219509 1.0172715 -0.10319996 -0.33308712 -0.11314185 -0.08469093 -0.024532689 -0.273786 -0.6155042 -0.06612997 -0.24223314 0.5806086 -0.15970163 -0.19490641 -0.16200487 -0.17378244 -0.3766316 0.03435868 0.7381789 0.77307516 1.2511744 -0.1061692 -0.19918862 1.2469116 -0.08972021 -0.74893755 -0.13231538 -0.05208638 -0.0870431
500 -0.14177904 2.0113862 -0.09960716 -0.09988808 -0.24431293 -0.1272649 -0.0028528718 1.6531898 -0.15680759 -0.111272134 -0.18269663 -0.13071392 -0.13089457 -0.07648194 -0.28337625 0.1525413 -0.22515324 -0.07017221 -0.07610784 -0.13914023 -0.099467635 -0.051082868 -0.11239562 -0.12168672 -0.026457861 -0.06892579 -0.57424587 -0.04847605 0.45144984 -0.051852357
862 0.36097753 0.06644224 -0.007867265 -0.047697045 -0.014998242 0.041560262 -0.0040676882 0.30627072 -0.04184198 0.30130547 0.08487596 -0.034542423 0.07110692 -0.023165023 -0.043488357 0.20527314 -0.03229185 -0.008286563 -0.00466737 0.4282571 0.29964513 0.14906318 -0.05907591 -0.006784044 0.15288475 -0.011598838 -0.019441731 0.14963096 -0.0038619244 -0.007219738
379 -0.29908785 -0.080826096 3.7149336 0.26841646 -0.51154065 1.3745433 0.3200701 -0.019949036 -0.84809273 -1.1832838 -0.17778213 -0.6175379 -0.11151612 -0.4822527 -0.60780317 -0.085695796 -0.047213964 -1.0701352 0.71789265 -0.20812969 -0.040313568 0.4291964 2.425581 -0.6647553 0.713127 -0.20013753 -1.6448187 -0.35445544 -0.12461008 -0.219416
293 0.051293544 1.4502479 0.24605204 0.17569482 -0.32716176 -0.08476572 0.0597831 1.3492075 -0.25735667 -0.26363733 -0.16280003 -0.21550858 -0.012400801 -0.1566978 -0.34370515 0.37289214 -0.15458885 -0.21225703 -0.033150386 -0.08809341 -0.03917138 0.16697448 -0.11145567 -0.17556478 0.39121643 -0.08757068 -0.733596 0.06497522 0.34705082 -0.13752429
582 -0.12116265 -0.11027081 0.71092176 -0.048962932 -0.26347518 -0.07553946 -0.05804188 -0.0077766217 -0.21322106 -0.45665818 -0.060124498 -0.17779933 0.5017984 -0.12509513 -0.18900801 -0.07244372 -0.14280818 -0.34359995 0.0004162863 0.52771837 0.534324 1.057282 -0.07304648 -0.1451536 0.82502276 -0.04435652 -0.5941157 -0.07247686 0.12045099 -0.110704236
810 -0.107984796 -0.07576167 0.91875553 0.0039971843 -0.2812741 -0.004728716 -0.032197755 -0.041284412 -0.21324936 -0.44334683 -0.07059809 -0.19448812 0.13267508 -0.17489135 -0.14342086 -0.05670954 -0.06658533 -0.30827987 0.07796465 -0.033406846 0.21665953 0.5445915 -0.019226087 -0.1748105 0.5677243 -0.0535051 -0.5330166 -0.045057572 -0.04459327 -0.08895643
312 -0.16970263 -0.12464744 1.3972733 -0.01864644 -0.3304535 0.4691223 -0.0049919426 -0.02921834 -0.2005631 -0.72417265 -0.10298534 -0.30801135 -0.07231516 -0.2726939 -0.2316755 -0.18028398 -0.15612563 -0.43694374 -0.0064048036 0.06544654 0.85295266 1.5322394 -0.010061691 -0.38742608 1.2713118 -0.081951536 -0.86453384 -0.08197396 -0.120177224 -0.15867706
520 -0.41198012 -0.27515665 1.1712168 -0.0923388 -1.0783855 -0.16221909 -0.07724544 -0.2734194 -0.5519283 -1.132907 -0.37632778 -0.5873807 -0.13290603 -0.35887474 -0.5703398 1.5341126 -0.41464272 -1.0872667 -0.10692513 2.6256664 0.05767774 1.462399 0.25117397 -0.22992074 2.1800098 -0.18171196 -1.8195724 -0.12467765 0.14540996 -0.41225353
735 -0.067291856 -0.040993012 0.11269384 -0.0396669 -0.120629035 -0.054683056 -0.03220098 -0.025746657 -0.093948476 -0.15614589 0.08382027 -0.038296543 0.892094 -0.049049273 -0.090022504 -0.053558853 -0.040156733 -0.12298565 -0.032135356 -0.06049945 -0.0014932202 0.15733713 -0.0458618 -0.0064159557 0.21646334 -0.014919914 -0.25284913 -0.039754163 0.62127894 0.09450668
138 -0.2902724 -0.16878861 0.4875645 -0.045508932 -0.62852937 -0.13682477 -0.06957302 -0.22553067 -0.34368122 -0.6810278 -0.25812283 -0.3729828 -0.13078213 -0.17541553 -0.3341265 1.3528962 -0.28774193 -0.6454479 -0.09090217 1.5731156 -0.076273285 0.7597348 0.29801583 -0.115112506 0.8205416 -0.10512461 -1.079101 -0.115736865 0.060034905 -0.2699658
747 -0.28065175 -0.23861304 2.144225 -0.17751233 -0.5689952 -0.12492181 -0.12464525 -0.11235102 -0.38445443 -1.0335828 -0.0145507995 -0.42645898 1.3275414 -0.336606 -0.4002884 -0.2520083 -0.18009308 -0.80445176 0.22475964 1.1267433 1.4568495 2.8951666 -0.1299971 -0.3658098 2.0325022 -0.10187141 -1.230459 -0.14880216 0.047997463 -0.22826445
657 -0.009471539 -0.0011644074 0.13823922 0.03660032 -0.031439316 0.04370062 0.015148887 0.042697035 -0.03859431 -0.04670219 0.046123408 -0.026213238 0.13975136 -0.021820232 -0.040457204 0.008982282 -0.0039047964 -0.03713419 0.02973526 0.045856327 0.16045171 0.03880912 -0.015006015 -0.007845123 0.08713658 -0.0062673497 -0.060954105 0.06213482 0.08751586 -0.009030099
993 0.011230413 0.007171996 0.114917286 0.04488539 -0.025287861 0.09228798 0.038736805 0.035351478 -0.023121586 -0.028378366 0.03869386 -0.032705434 0.12554818 -0.020280406 -0.037294857 0.1430073 -0.0045915577 -0.052925993 0.022525363 0.23579115 0.16733234 0.045852065 0.0689481 0.020334292 0.1142457 -0.0031307593 -0.051935345 0.1321927 0.14122587 -0.025986305
230 -0.13171552 -0.100025795 1.0103836 -0.054093182 -0.29067895 -0.02561452 -0.035743367 0.06531048 -0.20918797 -0.42329428 0.26233426 -0.20053957 0.015674496 -0.19672239 -0.20235339 -0.06377926 -0.07901028 -0.36314175 0.104299165 0.19443086 0.3867588 0.91260415 -0.024897166 -0.15705363 1.1039795 -0.07423494 -0.5669625 -0.087924466 -0.033096604 -0.09990665
105 -0.5490148 -0.39856952 5.2162037 -0.28281805 -2.398279 -0.11482938 -0.2270964 -0.5697854 -1.7300732 -3.5524087 -0.64760417 -1.3832215 -0.11140666 -1.2792529 -1.3414153 -0.62224317 -0.84507895 -2.0253313 0.42035204 -0.25499564 0.8963025 4.4776278 -0.27231273 -1.4713253 5.875649 -0.86634237 -4.5054812 -0.61314523 -0.30362222 -0.6803476
770 -0.008329685 0.025319915 0.09805841 -0.009591969 -0.032965776 0.061904192 -0.0022736494 -0.00419347 -0.03324016 -0.040131025 -0.008838886 -0.018932257 0.0698425 -0.020163536 -0.0351143 -0.0050220494 -0.0069709043 -0.03183977 0.0463944 0.034226753 0.13871898 0.0772692 -0.015499093 -0.0007973209 0.13819934 -0.009356977 -0.07088714 0.024825696 0.07779582 -0.013491573
82 -0.9293893 -0.23698242 4.8809776 -0.39091226 -3.9494722 0.38969982 -0.4276603 -1.1017983 -2.5745108 -5.406238 -1.1539372 -1.7260774 -0.12507728 -1.8874854 -1.9630747 -1.2101729 -1.5223367 -2.3914876 0.9657326 -0.8177789 -0.18690519 4.1429977 -0.822443 -2.2457216 10.536632 -1.4722496 -6.898506 -1.3868054 -0.69623727 -0.57734597
743 -0.08911494 -0.079956986 -0.0404295 -0.03393776 -0.016664376 -0.021256294 0.20461093 -0.043897003 -0.005864054 -0.0043062097 -0.046746075 -0.046927273 -0.016946875 -0.019195927 -0.066246085 0.6387565 -0.046032153 -0.1752059 -0.0058793104 1.4674752 0.07490362 0.08341634 0.62685233 0.23895767 0.71198624 -0.01127971 0.16086435 -0.0017567814 0.6251136 -0.12399342
787 -0.008500607 -0.0011006519 0.08586682 -0.0037408096 -0.023015454 0.01316931 0.0058453176 0.0025189482 -0.023209766 -0.03982741 0.013131613 -0.012473332 0.05033409 -0.018422669 -0.021888448 -0.0070558684 -0.00923287 -0.035593517 0.007488463 0.050874174 0.11677291 0.037075415 -0.010531287 -0.0022152439 0.08236143 -0.009209888 -0.04763419 0.0027531572 -0.0030519168 -0.011886117
940 -0.0063129277 0.05789357 0.1325026 -0.012039507 -0.041896332 0.023039509 0.058547765 -0.0028374575 -0.03573593 -0.07159435 -0.0073383674 -0.024573935 0.016940707 -0.03056849 -0.037223626 -0.014065611 -0.015905982 -0.04709603 0.07126822 0.016343907 0.17707358 0.084471025 -0.026786005 -0.021249425 0.19752283 -0.0059214905 -0.08088412 -0.0028754415 -0.003205359 -0.008404802
339 1.6277333 -0.20209153 1.4345474 0.14136773 -0.79891115 -0.53823435 2.7828617 -0.29011792 -0.89328 -1.9305527 -0.3123597 -0.42668787 2.6543648 -0.74675953 -0.7559277 -0.18311088 -0.26555964 -1.2595218 2.2959628 3.444842 3.5480046 2.3510916 -0.4565054 -0.4062975 3.2014484 -0.49510485 -2.1859043 -0.26201817 1.8402271 -0.651564
775 0.059351332 0.039785754 0.19094236 0.10791803 -0.015443461 -0.000698419 0.06888991 0.19973615 -0.016295873 -0.05081159 -0.006742254 -0.030103033 0.18735155 -0.030919207 -0.054999556 0.09625363 0.031538617 -0.06577168 0.0663991 0.12200789 0.23022991 0.15262336 -0.0039475937 -0.011550315 0.03994077 0.009173378 -0.07474186 0.1665892 0.088529035 -0.03243449
725 0.5105254 -0.06609978 0.32387853 -0.01915135 -0.17513494 -0.12722409 0.59812754 -0.06168316 -0.24387918 -0.4377644 -0.063410915 -0.12271836 0.3314325 -0.18951245 -0.18982925 -0.06429632 -0.12298578 -0.24744566 0.30309564 0.67201054 0.9273036 0.6249363 -0.10579195 -0.06557352 0.7927529 -0.12960741 -0.5308888 -0.0832891 0.25739893 -0.17493787
665 -0.21667007 -0.17604308 0.6138607 -0.08908143 -0.482859 -0.056551643 -0.047977604 -0.19833826 -0.28140554 -0.5465564 -0.16782403 -0.25308174 -0.035280388 -0.17887557 -0.28488272 0.17590733 -0.19663191 -0.50632274 -0.018058756 0.44351262 -0.05598707 0.67823535 0.061252452 -0.085516445 0.9608534 -0.069264896 -0.8161635 -0.14722644 -0.0057970607 -0.16782688
92 -0.042591836 -0.14732122 0.8409853 -0.16832983 -0.6151234 -0.26236758 -0.099281244 0.3443079 -0.6101137 -0.90914387 -0.09307763 -0.56785375 0.25252658 -0.29652476 -0.54450494 -0.0096124085 -0.39489043 -0.64009976 -0.00023907275 2.6647894 1.5681205 1.5640903 -0.2768774 -0.26164237 2.2821481 -0.36825535 -1.505753 -0.19730148 -0.014278481 -0.26494193
900 1.0454433 0.13919635 0.85552955 0.25621593 -0.32617596 -0.08888856 1.8240876 -0.06986025 -0.3495873 -0.73326296 -0.008141905 -0.21930626 1.9510297 -0.29975218 -0.437136 0.16491945 -0.010512475 -0.61490965 1.7503217 1.5739102 2.0006795 0.9254779 -0.265664 -0.13872309 1.5639002 -0.15348215 -0.76260465 0.05986124 1.6395942 -0.38915932
57 -0.56220347 -0.32647762 0.5100795 -0.043386318 -1.3127488 -0.2878991 -0.1895753 -0.39308295 -0.6704029 -1.3556706 -0.6042291 -0.7404203 -0.40521175 -0.2998187 -0.67294353 3.0752544 -0.5640933 -1.152273 -0.23167615 2.5377061 -0.24716704 0.91171616 0.38050386 -0.30659565 1.4949799 -0.25759766 -2.2510123 -0.16048518 -0.0063758693 -0.4586667
683 -0.09201416 -0.018418958 0.03271044 0.00977914 -0.19080558 -0.03272566 -0.02672176 -0.054818686 -0.09833913 -0.18439068 -0.09651486 -0.14335623 -0.055848993 -0.072524615 -0.11796566 0.9024743 -0.09278982 -0.17922229 -0.06134072 0.56570953 -0.013070801 0.11721796 0.1308865 0.021873973 0.28804833 -0.023876807 -0.29835767 0.108258575 0.15934412 -0.09741327
52 -0.21960858 -0.05473081 1.4576945 -0.04949913 -0.20504148 1.2505493 -0.018342376 -0.069651715 -0.27770606 -0.6317466 -0.06745818 -0.2504393 -0.05047506 -0.20957354 -0.15960127 -0.092737556 -0.06763988 -0.42392755 0.45436233 -0.06779873 0.5567363 1.0613174 0.48027277 -0.32963935 0.5933092 -0.022829162 -0.73367804 -0.08413758 -0.08126535 -0.061931726
394 -0.2638272 -0.04088625 2.9479702 0.023607455 -0.17756335 1.3212599 -0.0023747203 -0.07784075 -0.56770486 -0.85696536 -0.14813723 -0.40735278 -0.1584965 -0.31869423 -0.31275818 -0.14282572 -0.03332047 -0.6967751 0.6307282 -0.18617576 -0.00728475 0.6497037 1.7905517 -0.48653585 0.1275257 -0.140595 -1.081202 -0.22507334 -0.19052137 -0.081029564
679 -0.13523379 -0.12720777 0.88972044 -0.07624276 -0.3521174 -0.12151396 -0.057988513 -0.071509436 -0.2323778 -0.52378166 -0.13543455 -0.18905906 0.23101243 -0.14821179 -0.15178093 -0.09164448 -0.14686997 -0.3637624 -0.01685371 0.45769536 0.39772654 1.104111 -0.10350543 -0.1577961 0.9647936 -0.0788937 -0.68045086 -0.13436988 -0.035078894 -0.07175675
640 -0.09444009 -0.008694097 0.81186855 -0.10721745 -0.1942604 -0.06284829 0.06778486 -0.030971741 -0.25103763 -0.33819732 -0.031665124 -0.21368705 0.97975314 -0.15771575 -0.27597874 0.7487505 -0.009947572 -0.3305723 0.29129148 -0.06766922 1.189132 1.8018866 -0.24533589 -0.23240387 1.9361594 -0.14807464 -0.57645833 0.15411516 2.0864573 -0.025575085
614 -0.030101944 -0.023064299 0.6270404 0.18007326 -0.05559765 -0.04181932 0.006095942 0.29221803 -0.055808138 -0.1964892 0.14186487 -0.08755899 0.3815247 -0.07052457 -0.11779946 -0.008807852 0.029281419 -0.1752498 0.07553326 0.41678575 0.7683605 1.0430193 -0.05717031 -0.10744943 0.35561886 -0.07983089 -0.23811224 0.34360638 0.41399524 -0.069337554
154 -0.29008234 -0.18894343 2.268471 -0.15405099 -0.8422274 0.11282628 -0.07079376 -0.18397844 -0.6160459 -1.1938643 -0.1236432 -0.45604306 -0.035271138 -0.45893127 -0.502645 -0.22193766 -0.26396462 -0.8023845 0.16556206 -0.09757062 0.816445 1.9602237 -0.10746614 -0.5273819 2.2526057 -0.24508797 -1.5416656 -0.1817544 -0.06748211 -0.21744655
219 -0.13912539 -0.06847817 0.89550215 -0.04730921 -0.28046748 0.46229577 -0.011683625 -0.083861284 -0.17241278 -0.47295117 -0.091507845 -0.19430354 -0.06691084 -0.18641487 -0.14973472 -0.08216381 -0.10016532 -0.30667627 0.23864591 -0.0757662 0.19024172 0.8682175 -0.0033506544 -0.22191928 0.58800817 -0.082073405 -0.61660475 -0.031292196 -0.13422121 -0.07218949
329 -0.13417642 -0.47086883 4.471722 -0.27037713 -1.5121713 -0.15607965 0.13659114 -0.36565423 -1.1500775 -2.4783423 -0.44094807 -0.9263615 -0.01403106 -0.9241514 -1.0037833 -0.35457608 -0.52872896 -1.6028932 0.728137 1.4460444 3.490479 4.312726 -0.2629673 -0.94939417 5.6782613 -0.50547713 -3.128705 -0.24938074 -0.1795704 -0.5635181
274 -0.19175671 -0.15729669 0.8535304 -0.12274722 -0.3764976 -0.102937035 -0.120959915 -0.11188163 -0.27083492 -0.54998076 -0.018917426 -0.15890951 2.2927146 -0.18185143 -0.29985934 -0.14459103 -0.10157619 -0.43005762 0.041812375 -0.016859973 0.73507833 0.88072926 -0.16902332 -0.0565458 1.1075063 -0.07734648 -0.82093 -0.11931095 1.2142662 0.03544924
37 0.6692844 -0.07532065 0.9929223 0.8147206 -0.5264896 -0.4628268 1.9756941 -0.13420507 -0.50228083 -1.1025646 -0.22054088 -0.29609013 2.8793583 -0.41740605 -0.5506522 -0.054995097 -0.067791514 -0.90020955 1.6532696 3.1823323 1.487106 1.3708758 -0.24790417 -0.29002708 2.0256734 -0.2483928 -1.2506976 -0.20730214 1.6534413 -0.45165703
178 -0.404121 -0.003340178 1.9885919 -0.1341759 -0.40798077 2.3801773 -0.00047250354 -0.11828452 -0.31143057 -0.88304514 -0.17033806 -0.23294356 -0.24994169 -0.3956017 -0.26434287 -0.24561785 0.30041674 -0.5823442 1.5060536 -0.22640124 0.68679816 1.1386209 0.057622336 -0.40878114 0.23806061 -0.25950226 -1.0800576 0.28460532 -0.30330583 0.06614559
792 -0.0015239172 0.0067906715 0.18159707 -0.0033724722 -0.012982248 0.06578791 0.05835636 0.039736867 -0.017150544 -0.047017597 0.013448393 -0.018356347 0.10566317 -0.02692164 -0.03883081 0.01585675 0.01046389 -0.059478648 0.059471823 0.08542451 0.1813694 0.14781083 -0.005301612 -0.0068573016 0.07139224 0.020143341 -0.061208446 0.06769684 0.0029114224 -0.021904806
278 -0.365903 -0.006203362 2.6155305 -0.18596067 -0.9184043 1.5921447 -0.07865522 -0.29138562 -0.58206886 -1.4259305 -0.20634238 -0.38502994 -0.16701415 -0.5590522 -0.3995682 -0.30774492 -0.2559058 -0.8084248 1.2393543 -0.21073823 0.727673 1.8046017 -0.12751362 -0.6323254 2.0756254 -0.33258358 -1.638162 -0.070574865 -0.3775017 -0.10999384
573 -0.111968294 1.3944219 0.10081143 0.042658694 -0.27561158 -0.117117934 -0.019497294 1.3250312 -0.18854788 -0.20380294 -0.17867139 -0.1572719 -0.06940185 -0.075916775 -0.2688205 0.10159649 -0.19460249 -0.19457738 -0.039218634 -0.14366695 -0.059461642 0.19700357 -0.117716216 -0.15801029 -0.021404779 -0.041921 -0.6577396 -0.099205695 0.0611715 -0.14326575
211 -0.7366712 -0.3957969 3.5101979 -0.27640927 -2.6338382 -0.17543043 -0.2573045 -0.52980417 -1.4660562 -3.0635183 -0.90349287 -1.6889231 -0.42737576 -0.92415303 -1.3888243 3.824969 -0.9494807 -2.0185254 -0.3682702 0.9335965 -0.11671807 3.3710518 -0.1821239 -1.3834974 5.302451 -0.5376387 -4.3327384 -0.20016606 -0.11607458 -0.780374
476 -0.026533915 -0.06963068 0.37273982 -0.04193157 -0.14396952 -0.046729945 -0.00079838897 -0.05622697 -0.12335759 -0.27578744 -0.07139569 -0.11363564 -0.009829073 -0.102117516 -0.10222316 -0.023079246 -0.059685346 -0.17091984 0.021846883 0.25956437 0.26731658 0.5028694 -0.013716164 -0.08508644 0.33629242 -0.049263097 -0.35988685 -0.031100178 -0.033025198 -0.07648381
874 -0.011466283 0.23431249 0.18870835 0.042731293 -0.09345001 0.3666675 -0.019171137 0.062486507 -0.081118084 -0.1251979 -0.006303899 -0.04754668 0.22964326 -0.06915985 -0.075950526 0.07725643 -0.009214221 -0.07199617 0.1311852 0.12338729 0.40505466 0.17326733 -0.05197801 -0.031244755 0.09877209 -0.060298562 -0.19649652 0.21457851 -0.0015956119 -0.012497223
409 -0.20841835 -0.2696019 1.563717 -0.28088623 -1.4106797 -0.3920221 0.39551634 -0.28985235 -1.0402201 -2.0284896 -0.4835302 -0.79162985 1.3047115 -0.7244355 -0.85699433 -0.3117002 -0.53733844 -1.1236742 0.93083316 1.2930045 0.8563259 2.455036 -0.35009208 -0.70771426 4.409589 -0.46800676 -2.7110214 -0.37224114 0.04602428 -0.44321582
4 -0.7289994 -0.49587664 2.224506 -0.18871431 -1.6175677 -0.14885212 -0.11217457 -0.5221418 -0.82032174 -1.7497538 -0.55619675 -0.90256065 -0.28149647 -0.5889365 -0.8569767 1.9521949 -0.73365045 -1.7390655 -0.16065201 2.881799 0.055218987 2.3575594 0.5526355 -0.51880664 3.475494 -0.2866765 -2.7843301 -0.3459501 0.11266823 -0.566053
31 0.21784371 -0.15234183 1.7765119 -0.012843303 -0.76310056 -0.26811397 1.2258359 -0.23554666 -0.68648744 -1.3438476 -0.22850473 -0.44878584 2.2189345 -0.5459237 -0.6131179 -0.19000112 -0.13001262 -0.96919245 1.4867142 1.8979597 1.6946797 1.602421 -0.19830433 -0.39067256 2.7192965 -0.26879236 -1.5718029 -0.18337448 1.29444 -0.4473435
691 0.28247133 0.3169031 0.20552476 0.30038846 -0.044682443 0.13917084 0.4236918 0.3826033 -0.05970124 -0.066743284 0.15843761 -0.05894841 0.4058244 -0.09438538 -0.08010566 0.36584485 0.3713454 -0.049035206 0.14688954 0.3124837 0.37219286 0.21916056 0.053286836 -0.03888799 0.23288359 -0.036222912 -0.054414358 0.19417931 0.41153917 -0.05196023
462 -0.05865602 -0.074150935 1.1662095 -0.07790642 -0.42243966 0.014805679 -0.010289676 0.28185722 -0.29072973 -0.49061868 0.3873844 -0.21837746 0.3411444 -0.22018345 -0.29916257 0.21842752 -0.11304746 -0.3929087 0.26271784 0.56617755 0.84592646 0.45773277 -0.060585707 -0.22901697 1.5891562 -0.104597054 -0.76769185 -0.0098828105 -0.0008185603 -0.120395325
692 -0.014920003 0.17361899 0.19907814 -0.0049334904 -0.054404147 0.27127618 0.023819884 -0.007311058 -0.028215159 -0.081426404 -0.007771072 -0.031537827 0.05848375 -0.047125224 -0.041392513 -0.007893494 0.03514568 -0.055028375 0.14087674 -0.002276107 0.18687107 0.080052555 -0.018386863 -0.027649213 0.08318555 -0.031063652 -0.107966915 0.12770283 -0.009053357 -0.010092744
128 -0.573754 -0.10814486 4.326108 -0.4887545 -2.3547487 3.078107 0.79364234 -0.6432331 -1.3285617 -3.0572789 -0.5967116 -1.1042912 -0.2675211 -1.3280247 -1.2733022 -0.64687985 -0.6739801 -1.8266098 2.4425633 -0.41113353 0.69583565 4.60822 -0.3247395 -1.5310286 6.451146 -0.63802844 -3.9801233 -0.38772944 -0.5144061 -0.5574267
838 -0.011763089 0.052029718 0.11337345 -0.0125913145 -0.03265192 -0.0072850026 -0.00016537347 -0.012031428 -0.03954682 -0.086355306 -0.0053089685 -0.032865334 0.19535947 -0.029869083 -0.051975023 0.09471062 -0.007531788 -0.06752933 0.113197125 0.0034612007 0.22763845 0.093613654 -0.023897545 -0.008789055 0.15772106 -0.018908657 -0.102106355 0.04172844 0.17039557 -0.01350286
307 -0.1503931 -0.1541919 1.124999 0.09564329 -0.25072986 -0.041584454 0.15342683 -0.016736923 -0.15647924 -0.6369224 -0.13459633 -0.28400728 -0.009588151 -0.23319817 -0.20504497 -0.12897447 -0.16095398 -0.41266385 -0.037683245 0.5808662 0.8746601 1.6230567 -0.019602386 -0.24599259 0.8645934 -0.034283858 -0.7784135 -0.11586299 -0.096290916 -0.20415759
745 -0.06575265 -0.066071 0.60723156 0.13729736 -0.11147218 0.041363064 -0.051420696 0.061490364 -0.08894793 -0.25419232 -0.027400067 -0.10074618 -0.012257374 -0.089389704 -0.06936055 -0.06842532 -0.039601527 -0.1366862 0.06323608 0.061278075 0.26474753 0.52362496 -0.030175839 -0.10652323 0.37989396 -0.041234016 -0.25279096 -0.029462008 -0.032782044 -0.02876333
260 -0.093206584 -0.0977426 0.37624896 -0.0946014 -0.25701508 -0.17235072 -0.029714918 0.21311906 -0.1289116 -0.48691574 -0.022831732 -0.23592329 0.103559725 -0.153161 -0.22149837 -0.12910354 -0.2168502 -0.3512409 0.021267079 1.099952 0.96133715 1.7007625 -0.19253199 -0.26118955 1.2878529 -0.1898555 -0.69428426 -0.13916317 -0.051164795 -0.124056354
630 -0.019474639 0.0595402 0.35461536 -0.0024258338 -0.057848435 0.060034994 -0.0116917705 0.019350074 -0.075547315 -0.16328941 -0.03685663 -0.04594482 0.09057095 -0.062280852 -0.070262805 0.037632078 -0.022831269 -0.10292154 0.11905158 0.2372579 0.29644212 0.19864753 -0.006470423 -0.024386661 0.07423994 -0.05080039 -0.18749304 0.07357597 0.11960757 -0.030262908
168 -0.4197765 1.6636753 2.5857382 -0.33080018 -1.1170088 3.0175276 0.5445223 -0.2775748 -0.6236037 -1.7489237 -0.10805601 -0.54723066 -0.2442951 -0.7685018 -0.6720594 -0.3831025 -0.2898201 -0.9706972 2.5644517 -0.10405719 2.5858803 2.6183069 -0.45521304 -0.79136354 3.925189 -0.49219733 -2.159871 0.2078102 -0.36190736 -0.28934953
298 -0.13618807 -0.11624616 0.78117466 -0.03218555 -0.20395164 -0.062604986 -0.01106897 -0.0009002291 -0.15379663 -0.4280663 -0.037632886 -0.123234965 0.4411839 -0.13141122 -0.15508454 -0.06855931 -0.117075376 -0.35163158 0.1156852 0.9586475 0.9094259 1.3864622 -0.08095302 -0.14225237 0.6992056 -0.0289908 -0.55184215 -0.035350163 0.10349573 -0.11738139
791 -0.009223017 0.34644097 0.3435516 0.06406172 -0.14037164 0.53230774 -0.023640618 0.050389268 -0.09122007 -0.17815384 0.05034209 -0.08928792 0.3796685 -0.106483296 -0.10653182 -0.0036992251 -0.006878454 -0.10689624 0.2683174 0.055861197 0.6287423 0.3640338 -0.10308216 -0.07287213 0.17867269 -0.09803647 -0.2693465 0.47285995 -0.0022568067 -0.01401809
901 -0.012973062 0.012539759 0.072210245 -0.008059726 -0.03514817 0.017081145 -0.0026849397 -0.0038533174 -0.025263209 -0.04517208 -0.006646031 -0.027206948 0.05961377 -0.015936812 -0.035965543 -0.0008118257 -0.017404199 -0.03629597 -0.0050328374 0.054615885 0.10474544 0.038008675 -0.008189016 0.032876752 0.08029705 0.0017439052 -0.055138815 -0.0060344907 0.0459685 -0.012085133
104 -0.23516826 -0.0507815 2.5488896 -0.009403531 -0.28159353 1.2084521 -0.034806848 -0.058608245 -0.5599412 -0.81585723 -0.15527089 -0.41405758 -0.103418164 -0.3312389 -0.32173732 -0.16081153 -0.064649984 -0.6590722 0.47870857 -0.17278251 -0.003957583 0.4946463 1.6286062 -0.42593127 0.391533 -0.15248075 -1.0825088 -0.21724263 -0.16743971 -0.08495023
344 -0.22866742 0.03227738 1.7233747 -0.051282804 -0.1761259 1.5484673 -0.010572937 -0.13702165 -0.16186155 -0.5490977 -0.118595995 -0.08141438 -0.12296058 -0.24418104 -0.13931374 -0.1317235 0.28877464 -0.40524158 0.9413117 -0.13036348 0.4346742 0.51247823 0.1853167 -0.28737232 -0.012368057 -0.12319845 -0.5565544 0.14432564 -0.18505909 0.37537795
923 0.8989343 -0.012223155 -0.06273629 -0.010452315 -0.05111705 -0.09167327 -0.01162311 0.56124836 -0.09818036 -0.0033940084 -0.09680216 -0.096304916 -0.07536548 -0.022499343 -0.09577502 1.0454129 -0.14153264 -0.090270124 0.008575704 0.67374706 0.2923398 -0.077786766 -0.1576202 -0.037483614 0.34887713 -0.037468713 -0.18682323 0.42284825 -0.10594901 -0.01182125
954 -0.0362826 -0.012985179 0.37560374 -0.037463307 -0.11292787 0.10389118 -0.0052064788 -0.014238546 -0.095262066 -0.1716723 0.028683132 -0.080703065 0.1652275 -0.078845285 -0.08480697 -0.04001057 -0.005419268 -0.12775159 0.002579052 -0.024760881 0.17004652 0.3617177 -0.02046135 -0.08062696 0.3187995 -0.015370803 -0.18935686 -0.027155994 0.019762453 -0.038857106
439 0.028185137 -0.00809365 0.12056572 -0.009204245 -0.06914151 -0.015236402 0.0985098 -0.012252959 -0.06786783 -0.1227106 -0.019345183 -0.042331483 0.13777675 -0.04382681 -0.06699049 -0.003184064 -0.027880726 -0.06656771 0.0986531 0.1473552 0.27242577 0.082185745 -0.024891207 -0.0074056624 0.16138412 -0.032670915 -0.14018595 -0.0066958675 0.11985324 -0.04288243
56 -0.47247848 -0.25994572 0.48324472 -0.020895869 -0.93246806 -0.20187636 -0.07729039 -0.3050587 -0.46782508 -1.0164051 -0.43362352 -0.52432007 -0.24420834 -0.2448715 -0.49416885 2.2928653 -0.43470263 -0.9488353 -0.14392188 2.3972323 -0.19034909 0.80237776 0.57499677 -0.21555923 0.89773005 -0.17731784 -1.641441 -0.19911751 0.019811232 -0.4017907
855 -0.025046168 -0.03444366 0.35256702 -0.0038322755 -0.07298692 -0.017195858 0.017423013 0.09851851 -0.05460464 -0.12670188 0.04092805 -0.07163752 0.52687216 -0.047619723 -0.084562264 -0.023173679 -0.011139564 -0.17003076 0.1817658 0.5529825 0.5159883 0.66229707 -0.024795078 -0.036626454 0.3100415 0.13776669 -0.16431847 0.014305767 0.13373546 -0.09217479
845 -0.30183023 -0.09684234 0.24167229 -0.01679629 -0.5725806 -0.17476533 -0.035564005 -0.13484697 -0.29554257 -0.6564838 -0.27191696 -0.3170781 -0.11824443 -0.16474426 -0.32725224 1.34395 -0.27952835 -0.57288396 -0.06427892 1.5481536 -0.105339244 0.58220994 0.29131833 -0.12247453 0.6331705 -0.0994721 -1.0172105 -0.09245002 0.36347684 -0.27205208
623 0.002883114 0.5123629 0.5288048 -0.0040032174 -0.1360188 0.86718345 0.14342801 0.16305333 0.025593422 -0.22098397 0.58709013 -0.07369958 0.67274153 -0.12547934 -0.18113922 -0.021841168 0.126942 -0.13471591 0.5631266 0.32097733 1.4053609 0.90505666 -0.19026776 -0.17604196 0.2563328 -0.1344423 -0.3260364 0.7352113 -0.01867169 -0.014388422
432 -0.043389767 -0.046496864 0.60149956 -0.0088131325 -0.100009896 0.39770386 -0.048646014 -0.024078092 -0.08440708 -0.21781681 -0.018942222 -0.060365338 0.30355468 -0.07684029 -0.10720362 -0.05790012 0.11789881 -0.18848398 -0.027738905 -0.03943972 0.5489652 0.67092526 -0.018415416 -0.07018074 0.09048055 -0.050988585 -0.2995602 -0.008903467 0.20591265 -0.02269642
388 -0.23638931 -0.024868248 2.2755632 -0.033372145 -0.2307024 0.8992394 -0.019875694 -0.07028104 -0.4692185 -0.6564443 -0.124340706 -0.31048438 -0.08329939 -0.27083492 -0.27251807 -0.13759203 -0.043579098 -0.58466727 0.5589019 -0.19568373 -0.026793221 0.36095905 1.4802663 -0.35000333 0.17866446 -0.09468295 -0.86288816 -0.18791078 -0.18160562 -0.05113374
269 -0.5814051 -0.50664747 3.0397966 -0.48852322 -1.1266505 -0.09145464 -0.10090252 -0.3852637 -0.75529563 -1.5645988 -0.03456636 -0.5088244 4.2531824 -0.54361343 -0.7320401 -0.489693 -0.25845918 -1.3440784 -0.08723205 -0.35382745 1.0528021 2.9637964 -0.17147355 -0.45809433 2.7431755 -0.18569884 -2.2301385 -0.4666241 2.5779712 -0.191189
885 -0.0045570433 -0.059193183 0.028866926 -0.034612205 -0.057784557 -0.058469296 -0.055588216 0.10175147 -0.08393756 -0.0627902 0.101294756 -0.05626118 0.039205432 -0.02323326 -0.056047406 -0.04501642 -0.065763935 -0.035161596 -0.029548032 0.46636182 0.31234902 0.2944579 -0.04841106 -0.009030324 0.42278558 -0.057984557 -0.1507808 -0.06576868 -0.01568204 -0.030778838
727 -0.0063567357 -0.0063515007 0.117919005 -0.013868393 -0.06527859 0.06983218 0.05041206 -0.014884524 -0.047878962 -0.10615548 -0.024719836 -0.05849662 0.06502864 -0.0547368 -0.08193405 0.025857136 -0.01234297 -0.07281966 0.04539542 -0.0025578719 0.16426812 0.15601283 -0.02531316 -0.040793367 0.24330847 -0.026984686 -0.15646045 -0.004208975 0.06583749 -0.011022634
712 -0.02451263 0.21704523 0.1441157 -0.016605929 -0.08018086 0.15540457 -0.038554203 -0.038977154 0.0069810916 -0.06985741 -0.007083945 -0.032506175 0.09080528 -0.029043375 -0.035003707 -0.0012997262 -0.03998012 -0.067678876 -0.016735092 -0.03116093 0.03077082 0.09862016 0.033321455 -0.034306187 0.1353043 -0.029401643 -0.080654174 -0.023204977 -0.019999757 -0.017082518
212 -0.48945084 -0.40699157 4.4817653 -0.33038715 -1.9770434 0.15097402 -0.22997807 -0.4839681 -1.3215626 -2.8077557 -0.47368485 -1.0374066 -0.0513249 -1.0607713 -1.0869935 -0.511719 -0.63938874 -1.7507805 0.5268196 -0.2271565 1.2183443 3.4226954 -0.24170192 -1.1832111 5.136138 -0.63417083 -3.575414 -0.509651 -0.2418118 -0.46103206
353 -0.24956141 -0.059450414 2.3044136 -0.20462032 -0.5458775 -0.03933778 -0.094319426 -0.055765457 -0.53569216 -0.9413276 -0.024271313 -0.44274735 2.4956634 -0.4190081 -0.6366421 0.90440285 0.020944905 -0.69846535 0.6069449 -0.16795515 2.6396523 3.6074955 -0.5345804 -0.54506034 3.5066743 -0.3093937 -1.3404068 0.39872992 3.685153 0.104303606
270 -0.075152285 0.19205938 0.54872745 -0.050824728 -0.23078123 0.30030856 -0.012091375 -0.013285576 -0.19690225 -0.39194688 -0.05119008 -0.15144585 -0.052770495 -0.16842265 -0.18346037 -0.06576637 -0.07380839 -0.21251355 0.33165008 -0.022181371 0.34179255 0.4450775 -0.06516312 -0.16309968 0.5710845 -0.0913636 -0.51130694 -0.011990319 -0.08176518 -0.07162172
805 0.008492608 0.5160446 0.0030767564 -0.0027553232 -0.06639125 -0.023408702 -0.006229317 0.39376473 -0.06350952 0.018742766 -0.020679874 -0.04557303 0.070952326 -0.027901972 -0.09827832 0.26335317 -0.030052317 -0.044812378 -0.013731658 -0.014222788 0.019459426 0.029670931 -0.005896178 0.17156711 0.13630693 0.069289744 -0.100438595 0.075035736 0.43666136 -0.027378986
703 0.33346826 0.3056165 0.2152753 0.23026997 -0.049360838 0.18785502 0.2446548 0.3158881 -0.06265039 -0.0733118 0.16276133 -0.06397042 0.44283894 -0.10257151 -0.0781643 0.34707737 0.3651274 -0.04961798 0.18454805 0.30703765 0.47001386 0.24448228 0.024263553 -0.03382651 0.20887193 -0.055752594 -0.0593009 0.20950261 0.44668755 -0.048812054
191 -0.57917535 -0.23209035 2.3704612 -0.28018522 -0.7501287 2.167603 -0.15171222 -0.54255265 -0.37329122 -1.142596 -0.26953208 -0.19219278 -0.4648595 -0.46654707 -0.27174786 -0.45297456 -0.21269655 -0.8168355 1.2576097 -0.5297717 -0.12937264 1.4170117 0.3811768 -0.633908 0.7371757 -0.19974884 -1.3556612 -0.2974945 -0.48166567 -0.018808912
366 -0.5415329 -0.5379757 3.341112 -0.2045768 -1.5911162 -0.22489026 -0.1421427 -0.47154713 -1.1082624 -2.3952696 -0.57368374 -0.9173584 -0.20626767 -0.74333215 -0.8690018 -0.52337533 -0.82102555 -1.4983357 -0.09198382 -0.16183017 0.075039916 3.576146 -0.2739605 -1.0829986 3.883456 -0.4695486 -3.2384853 -0.6934647 -0.3703961 -0.4215335
746 0.15209547 0.122620836 0.10583902 0.0767813 -0.03426571 0.049893524 0.035338677 0.1689727 -0.04645744 -0.065113395 -0.0003641279 -0.032955475 0.18070841 -0.039000455 -0.043135032 0.1070887 0.078010365 -0.041439757 0.025377892 0.16553082 0.25955993 0.09555812 -0.0018109253 -0.01548581 0.17813207 -0.025299078 -0.07959341 0.12876011 0.23166056 -0.027594922
195 -0.43514475 -0.25309038 0.39106542 -0.048366226 -0.6966248 -0.16296054 -0.06431917 -0.288498 -0.3109541 -0.77645785 -0.33248612 -0.33889684 -0.17732687 -0.23295048 -0.33644375 1.6098979 -0.33592507 -0.8033601 -0.09629663 2.2508805 -0.046044778 0.7741381 0.5361457 -0.10876427 1.2533497 -0.09753465 -1.143993 -0.14519031 0.22561468 -0.32715562
94 -0.34010166 0.6547286 1.365663 -0.21361278 -0.6974619 3.0543954 0.76139593 -0.17864008 -0.3332941 -1.0381179 -0.18263964 -0.28906533 -0.23336437 -0.47472987 -0.41435453 -0.18155514 -0.23629527 -0.6173115 2.402624 -0.20108104 0.5468181 1.7353232 -0.23041363 -0.47044936 0.7485767 -0.30321422 -1.4468092 1.186343 -0.29570636 -0.10480105
852 0.028792396 0.13399601 0.25276116 0.1982553 -0.0806708 0.52161515 0.40114993 0.04019638 -0.02758702 -0.11679101 -0.057724584 -0.071624845 0.1407378 -0.11182038 -0.082420446 0.32990348 0.15306978 -0.08433529 0.25898236 0.07053441 0.21702802 0.29913747 -0.070845686 -0.051345713 -0.022997344 -0.020154638 -0.14392443 -0.0028485663 -0.017364943 -0.064210705
124 -0.26034805 -0.091474056 2.104875 -0.23467205 -0.51985055 -0.026513115 -0.11073402 -0.08961596 -0.48767278 -0.9521913 -0.026239986 -0.453377 2.5582678 -0.3751652 -0.56913745 0.62421393 -0.02029257 -0.7334845 0.49752748 -0.15544005 2.527647 3.44386 -0.51263916 -0.49216738 3.723752 -0.28752577 -1.413344 0.5876412 3.8808362 0.06655324
194 -0.47540823 -0.2529995 0.5308651 -0.011680537 -0.879069 -0.21812598 -0.07300097 -0.30337235 -0.40748587 -0.97836775 -0.41881713 -0.48036715 -0.15141502 -0.28914502 -0.42717955 2.1130223 -0.39174983 -0.9888673 -0.10528386 2.6487658 -0.027613768 0.9041514 0.608173 -0.19338186 1.2150297 -0.1443361 -1.5101267 -0.14497206 0.22154064 -0.3716254
51 -0.25916538 0.33483103 1.639479 -0.23740318 -1.1179329 1.6130732 1.0791816 -0.21818118 -0.66128165 -1.6491625 -0.32263952 -0.580265 -0.14544669 -0.7026519 -0.69972575 -0.16844264 -0.38303688 -0.9591023 1.742647 -0.122046426 0.9883258 2.316986 -0.34439301 -0.73153645 2.2877922 -0.37263584 -2.21341 0.29853857 -0.2305125 -0.2830599
863 -0.0095982235 -0.004515331 0.077471904 0.010822922 -0.02289675 -0.0024509227 -0.0019828607 0.01722787 -0.03707469 -0.048581228 -0.00981921 -0.039567094 0.0593156 -0.02788021 -0.037500765 0.15512699 -0.011396155 -0.050288904 -0.005778685 0.17356876 0.16616248 0.09826717 -0.00885289 0.03274694 0.012325332 -0.014363684 -0.081472754 0.06875621 0.05862466 -0.026612787
273 -0.30098817 -0.25164294 0.4862572 -0.1878884 -0.4489892 -0.121064305 -0.08464173 -0.18389422 -0.24765506 -0.4845933 0.0354459 -0.17559104 2.59234 -0.12635247 -0.29650927 -0.12052691 -0.15784954 -0.5185892 -0.06965458 -0.11379687 -0.011849137 0.87766176 -0.09809935 -0.0071564554 0.94316936 -0.032084376 -0.83839124 -0.20731883 1.5968059 -0.02177714
799 -0.06449643 -0.038743727 0.3378742 -0.023210894 -0.11593529 -0.018092586 -0.015229823 0.14016902 -0.086633876 -0.13727008 0.055710495 -0.06832909 0.5782426 -0.04936149 -0.077122904 -0.047634274 -0.058862068 -0.1452109 -0.016247956 0.2670216 0.16918074 0.54091066 -0.029757202 -0.0030400397 0.379151 0.058126807 -0.20700006 -0.030041644 0.31796274 -0.06077211
381 -0.25094742 -0.013721717 2.942162 -0.051701494 -0.18622135 1.7905643 0.33108348 -0.07389714 -0.4989493 -0.8957578 -0.13453612 -0.3475252 -0.0952849 -0.38489255 -0.35815933 -0.116033606 0.4635676 -0.7600364 1.2883362 -0.13045935 0.72598535 0.6545133 1.380763 -0.4505776 0.39775574 -0.19485141 -1.0456982 -0.09277298 -0.16496667 -0.018563127
26 0.94213897 -0.07563043 0.84589916 0.5289557 -0.40890023 -0.47115928 2.383894 -0.12364065 -0.4689203 -1.0710268 -0.15179563 -0.28615007 2.7987654 -0.4493017 -0.5360198 -0.020178437 -0.04393519 -0.9218297 1.8592008 3.271441 2.0975056 1.6105561 -0.26038042 -0.22616553 1.945327 -0.18601446 -1.2094886 -0.17959897 1.7381605 -0.5026258
951 0.13606754 0.9161002 -0.013046311 0.36652118 -0.052873243 -0.074434094 0.2854077 1.3148801 -0.0726194 0.31619164 -0.07733892 -0.07632526 -0.07222657 -0.06877297 -0.11275021 0.005465716 -0.026990268 0.019339351 -0.040896762 -0.08149048 -0.034288064 -0.003780976 -0.021728411 -0.016554348 0.057504293 0.00097129494 -0.099763 -0.059822638 0.5507538 -0.09202456
468 -0.15974705 -0.039161623 1.1301991 -0.080523975 -0.34265116 0.6398397 -0.047370315 -0.07875242 -0.19542728 -0.6230779 -0.080619976 -0.23394413 -0.046644334 -0.27265856 -0.19529276 -0.08635992 -0.07183723 -0.3598245 0.21969822 -0.07638764 0.45777854 1.1367936 -0.0066483305 -0.2439843 0.793082 -0.1025443 -0.68324345 0.06753148 -0.12813677 -0.0644251
133 -0.31033358 -0.16314511 3.2782335 -0.3077838 -1.7762083 -0.04079346 0.23984438 -0.44340202 -1.3240265 -2.8758667 -0.5664007 -0.9839571 -0.04735455 -1.0969565 -1.0347272 -0.4717619 -0.6155612 -1.5747952 1.574061 0.61943644 2.3892095 4.281495 -0.37778687 -1.1190299 4.919495 -0.7549981 -3.6437547 -0.25657147 -0.17180523 -0.50178975
572 -0.15829305 1.0062847 1.6613002 -0.009495272 -0.3248354 1.7266899 0.57276994 -0.099690855 -0.26783642 -0.6025318 -0.021473678 -0.2042961 -0.07287307 -0.20209275 -0.27806625 -0.14009468 -0.09722163 -0.38913873 2.0108397 -0.06724178 0.9130712 0.5218714 -0.18107171 -0.27846673 0.6415847 -0.17807354 -0.7694103 0.5262259 -0.09781619 -0.08068808
722 -0.008317557 -0.011719843 0.1667522 0.015507042 -0.070016764 -0.018217642 0.11675644 -0.015971867 -0.053091742 -0.10542798 -0.021549923 -0.041368607 0.2541496 -0.046197705 -0.064298384 -0.026750326 -0.010045541 -0.10345179 0.17659941 0.21595374 0.14488529 0.19070083 -0.02218332 -0.010610123 0.20476238 -0.013154285 -0.13297884 -0.030353162 0.09748416 -0.050367292
283 -0.7186305 -0.36654323 6.1157784 -0.35948727 -2.0685022 1.1398789 -0.13533832 -0.62382823 -1.600879 -3.1076376 -0.70577556 -1.2024423 -0.30215842 -1.2038246 -1.3139133 -0.6962037 -0.67883706 -2.0655122 1.3087356 -0.62432945 -0.116876185 2.1871877 1.733027 -1.420265 4.548211 -0.544889 -4.0652432 -0.8510558 -0.6397186 -0.40096912
193 -0.34623122 -0.18244094 0.3171528 0.06540035 -0.5722653 -0.12039633 -0.10785238 -0.20529568 -0.26695833 -0.64609295 -0.28990203 -0.27771765 -0.11221192 -0.19881205 -0.30145577 1.931328 -0.24614505 -0.6725136 -0.020754363 2.0607052 0.088873915 0.39825433 0.46755457 -0.039485373 0.67322844 -0.11115809 -0.994403 -0.01887995 0.35092473 -0.24219356
161 0.04747366 0.9809212 0.906897 0.40406972 -0.64500445 -0.12884061 -0.0276549 2.207835 -0.45379177 -0.6529102 -0.27100572 -0.42376834 -0.14175676 -0.22294438 -0.5118146 -0.027702177 -0.29634777 -0.45960855 -0.01799219 -0.14472832 -0.033485427 0.572285 -0.12973389 -0.34340805 0.9235257 -0.21971817 -1.3017623 -0.1406316 -0.1067545 -0.31831518
945 0.13335449 0.061243813 0.17336749 0.02452948 -0.07465529 -0.022576723 0.0625519 0.10826386 -0.075229235 -0.13616423 -0.012203867 -0.07138191 0.21320617 -0.06010204 -0.0932166 -0.0017059915 -0.025713885 -0.08884928 0.21740219 0.26278317 0.28975832 0.25649405 -0.040409822 -0.044697393 0.30996925 -0.02304977 -0.17439882 -0.005734805 0.07793023 -0.07149035
647 -0.028197408 -0.016800947 0.49426734 -0.04541221 -0.18808976 0.11690644 -0.0037381467 -0.032915235 -0.16579616 -0.3125151 -0.031158004 -0.11150775 -0.026363501 -0.12475741 -0.13783431 -0.05913949 -0.046853226 -0.14918278 0.030103385 -0.0028813728 0.2562765 0.31073117 -0.050448027 -0.1309016 0.68701965 -0.07405554 -0.4040617 -0.050347883 -0.053148832 -0.041618586
966 -0.021981781 -0.015081919 0.14991559 0.013640486 -0.04045478 -0.0020607917 -0.010529819 0.006084822 -0.04810155 -0.08596363 -0.0031074618 -0.023744598 0.12737444 -0.02609071 -0.02355214 -0.020659437 -0.022936774 -0.042323466 -0.0033040252 0.09861866 0.12903976 0.112598464 -0.018625334 -0.0101788165 0.13182113 -0.017285546 -0.09151276 -0.014654184 -0.0034467124 -0.01745431
887 0.105979346 -0.037477896 0.23518746 -0.014579738 -0.0774154 -0.053347886 -0.057677384 0.22629926 -0.10065593 -0.08652649 0.06112343 -0.07958523 0.25000492 -0.054411795 -0.06553334 0.0110183805 -0.027971867 -0.054050304 -0.012856449 0.65246606 0.37671244 0.37717628 -0.04442038 0.035642732 0.49276954 -0.058853723 -0.17720126 -0.027797386 0.1593299 -0.021472542
204 -0.2529747 0.92395365 1.4326546 -0.11797227 -0.5977843 2.9029548 0.6383175 -0.12590908 -0.31829354 -0.9102632 -0.15092282 -0.24009402 -0.1983871 -0.4247954 -0.34453315 -0.1395169 -0.19263077 -0.5326676 2.2427914 -0.1965801 0.7560078 1.3364899 -0.2595788 -0.39343092 0.6110814 -0.29441926 -1.2343901 1.2327465 -0.21261464 -0.102255635
208 -0.34837744 -0.33211645 0.85206145 -0.14427578 -0.91211885 -0.16065 -0.0006943103 -0.34192225 -0.5025395 -0.9829158 -0.39680147 -0.5404279 -0.17274675 -0.27194357 -0.44538316 0.9666233 -0.4458455 -0.87191004 -0.1527477 1.6045623 -0.089591876 1.1850355 0.24795055 -0.28161138 1.8368468 -0.11764356 -1.5144013 -0.2615418 -0.06398579 -0.35959944
797 0.18427777 0.11755271 0.65575445 0.32221097 -0.07107444 0.6308482 0.24328864 0.025737584 -0.104722075 -0.23575294 -0.057872336 -0.08363093 -0.0074264365 -0.12981941 -0.09663355 0.05683694 0.15299319 -0.08607861 0.60853183 -0.018015329 0.42827976 0.1905 -0.035381585 -0.09487481 -0.011309471 -0.11153684 -0.27020082 0.4098584 -0.033804152 -0.03238231
877 -0.0710076 -0.045626562 0.38777658 -0.05438614 -0.1894393 -0.044882525 -0.028143376 -0.0311889 -0.13099937 -0.23947144 -0.061469596 -0.10004339 0.1658395 -0.08824567 -0.109856166 -0.043864213 -0.07384172 -0.1852333 -0.0035451278 0.21667856 0.23193596 0.4313296 -0.020259252 -0.032843567 0.5331348 -0.021465775 -0.33825144 -0.047483366 -0.00938868 -0.050098725
837 0.05203513 -0.027629552 -0.0064316066 -0.015598871 -0.020569062 0.17316332 -0.0072599435 0.03544628 -0.019206105 -0.011844527 0.02131409 -0.025230486 0.062067784 -0.021109572 -0.036866184 0.076878786 -0.009082971 -0.012288675 -0.009373008 -0.013238074 -0.0028634674 0.050696544 -0.0045080543 -0.0029863745 0.24182738 -0.009649606 -0.027675813 -0.04254855 0.06416495 -0.011913624
330 0.08858376 -0.06553856 0.31514102 0.017416447 -0.08558663 -0.07750125 0.39554667 -0.009212217 -0.07984089 -0.31993487 -0.008853877 -0.10988652 0.4755861 -0.12312003 -0.13224813 -0.0075365664 -0.04562402 -0.24638782 0.3495752 0.59042585 0.9707574 1.0451205 -0.08639256 -0.103253916 0.50923383 -0.07729679 -0.3643585 0.10090454 0.22685726 -0.14535357
711 0.40268612 0.18840803 0.23961957 0.21041715 -0.04510655 0.04092676 0.3264736 0.2535527 -0.050537676 -0.089269005 0.14325505 -0.043595076 0.4300488 -0.06561747 -0.082171224 0.31612307 0.26126736 -0.05252536 0.23476434 0.2014837 0.39129013 0.1538825 -0.021539088 -0.018658884 0.1561322 -0.050447095 -0.08436773 0.114600286 0.3501671 -0.045819797
488 -0.067988 0.81442827 0.102075584 -0.058574 -0.14559853 -0.00479064 -0.0066833883 0.67340213 -0.14205915 -0.15641913 -0.08292733 -0.1104424 -0.012864365 -0.08774687 -0.19871253 0.071938574 -0.079551235 -0.13453129 -0.0018810213 -0.045533378 -0.012347793 0.1298966 -0.03675962 -0.048562318 0.26859996 -0.035270717 -0.37010205 -0.017978182 0.41835198 -0.07175302
939 -0.023866158 0.26190832 0.17881186 0.0100810155 -0.038165685 0.378436 0.19897225 -0.005787769 -0.06056357 -0.06370082 0.057948843 -0.017401079 -0.011295471 -0.049140863 -0.048371468 -0.00938503 -0.008450799 -0.033341315 0.3225674 -0.00707831 0.120369636 0.0051835626 -0.02227097 -0.035753947 0.046480816 -0.028955692 -0.09055865 0.022245463 0.09254761 -0.02093984
50 -0.05672961 -0.10091682 1.2236426 0.13108286 -0.2431947 0.56382346 -0.09053009 -0.05284793 -0.18713091 -0.5464756 -0.029445935 -0.18335994 0.7797049 -0.20273454 -0.27019498 -0.064104795 0.4233232 -0.41199794 0.034909345 -0.013749409 1.4366573 1.2775278 -0.10986958 -0.17397848 0.477364 -0.17463666 -0.68149304 0.38089597 0.58352596 -0.06571337
571 -0.1382281 -0.09421779 0.4241526 -0.080223165 -0.37315196 -0.00130975 -0.04950858 -0.15470015 -0.22636524 -0.4142289 -0.1510463 -0.1888786 -0.08516341 -0.10773213 -0.19523321 -0.0009448812 -0.17595236 -0.34197566 -0.03751677 0.18204613 -0.05980425 0.36112303 -0.003638366 -0.10564759 0.79997903 -0.07007601 -0.6229668 -0.12374796 -0.027711838 -0.108483486
140 -0.42906386 -0.28351924 1.0240809 -0.25594077 -0.5299402 -0.09257596 -0.093686014 -0.16900751 -0.30438977 -0.6030933 0.5052186 -0.173969 3.8935587 -0.19508663 -0.3727319 -0.2166411 -0.14512582 -0.66258967 -0.06134295 -0.19502816 0.29195124 1.1626654 -0.120705 -0.021482466 1.1103946 -0.010508298 -1.053443 -0.24290685 2.3041518 -0.027533561
652 -0.017607389 -0.017262336 0.3113207 -0.039189514 -0.13202201 -0.012912084 -0.018281976 -0.035843708 -0.11810648 -0.20389032 -0.027170157 -0.1054559 0.059991695 -0.08938332 -0.09579571 -0.021232849 -0.051034212 -0.10294477 0.04070615 0.045871586 0.12819587 0.3020673 -0.014376879 -0.060393404 0.36007154 -0.04546668 -0.26898584 -0.032604493 -0.022660196 -0.043224234
731 0.06551959 -0.01307018 0.105603315 0.19552508 -0.020370776 -0.022399163 0.31654316 -0.014065936 -0.012750252 -0.046686158 -0.009221102 0.06234917 0.20567423 -0.023931537 -0.037283417 0.017075814 0.23359124 -0.009979697 0.120415516 0.026482731 0.052689277 -0.017541856 -0.032503113 0.15418908 0.05955619 0.040632598 -0.019499771 0.07290374 -0.0019086562 0.24378887
294 -0.20970853 0.87727696 0.7443576 -0.066089645 -0.41462618 1.4460732 0.022208156 -0.072145976 -0.29967627 -0.6221737 -0.06849583 -0.22418585 -0.06758442 -0.2789594 -0.23167162 -0.12686765 -0.06574204 -0.27832645 1.0794827 -0.13233921 0.64337534 0.6689573 -0.16260214 -0.24655731 0.719492 -0.19707297 -0.7808926 0.34106705 -0.12676676 -0.10061053
785 -0.017987726 -0.005016982 0.18364932 -0.003777291 -0.04842375 -0.022914095 0.26717007 -0.0032157325 -0.03557396 -0.10258069 -0.0106221605 -0.031357583 0.32125017 -0.051445365 -0.056795716 -0.0015969583 -0.0051412354 -0.14539626 0.2876618 0.36253405 0.24605115 0.2993935 -0.042480644 -0.025402933 0.20519961 0.067016646 -0.12650667 -0.026908854 0.08521232 -0.07429726
68 -0.21485224 -0.22951503 1.860777 -0.22058462 -0.7380304 -0.13060375 -0.094334 -0.19139136 -0.47736308 -1.137755 -0.10057526 -0.4504195 0.6846325 -0.39419597 -0.43173766 -0.26605245 -0.27942035 -0.81824684 0.13381672 0.8597695 1.1432768 2.445162 -0.1177119 -0.45063668 2.5981884 -0.20641804 -1.4798278 -0.23734568 -0.0673985 -0.22279298
985 -0.009540187 -0.011072278 0.13574265 -0.0004610166 -0.011494736 0.0572247 0.03165716 -0.002543226 -0.03302518 -0.051232632 -0.015663568 -0.029015651 0.039079517 -0.021768793 -0.030641204 -0.00047289507 -0.0070809773 -0.048601847 0.015854124 0.029890906 0.09381024 0.062228516 0.038181942 -0.011418437 0.014339924 -0.0033449486 -0.07252858 -0.0036641248 -0.00028639808 -0.015735006
404 -0.43362352 -0.29591647 3.167575 -0.41338426 -1.188022 -0.0054313387 -0.057684626 -0.36021632 -0.89430684 -1.7277964 -0.13543533 -0.7684824 2.0360966 -0.68013126 -0.9550063 -0.08499046 -0.20768407 -1.3126954 0.12754357 -0.2314424 2.225952 4.190342 -0.42199922 -0.9297677 4.912427 -0.38134995 -2.4052348 -0.22789326 2.8226733 -0.1587785
552 -0.29680404 -0.18948556 0.7845564 -0.048957773 -0.81734955 -0.08327544 -0.05123086 -0.20761688 -0.4313313 -0.8370067 -0.29037482 -0.4931639 -0.21096735 -0.23323505 -0.4423309 1.5972285 -0.31491426 -0.7997328 -0.09491607 1.4163618 -0.031215224 0.5703725 0.34068203 -0.2405558 1.3319008 -0.13468933 -1.3499675 -0.13317916 -0.0023614608 -0.28510568
880 -0.30241892 -0.18090056 0.6775355 -0.033347763 -0.608027 -0.069100976 -0.08107986 -0.22350477 -0.33843818 -0.65530705 -0.24909483 -0.3270844 -0.14215267 -0.1545533 -0.26941094 0.75489336 -0.28361103 -0.59429187 -0.056924034 1.0671835 -0.11258028 0.6221456 0.33489642 -0.1435708 0.78219837 -0.090969026 -1.0795102 -0.14522253 -0.061810084 -0.2258576
110 0.11634835 -0.07116424 0.5737498 -0.017441789 -0.19718948 -0.08018011 -0.004843074 -0.020822907 -0.19472015 -0.38988054 -0.08359777 -0.14588368 0.011708448 -0.1346192 -0.16838603 -0.02007644 -0.06812718 -0.21737134 0.07706587 0.22779486 0.42577916 0.61986965 -0.040569928 -0.1245379 0.45857024 -0.115218855 -0.53147835 -0.008280764 0.024917517 -0.09836358
218 -0.3639713 -0.29362962 2.5998404 -0.033083636 -0.89104646 0.2363877 0.18280637 0.1754266 -0.28562272 -1.5081489 -0.21519856 -0.7922252 -0.085546054 -0.6123224 -0.56910056 -0.43319058 -0.35024247 -0.94167185 -0.060134258 0.33660865 1.2193853 4.4159417 -0.13907634 -0.863439 3.0151446 -0.123373546 -1.9394149 -0.2119513 -0.36760977 -0.43213835
847 1.5596324 -0.11852912 0.1990663 -0.14636233 -0.13503279 -0.19096349 2.0346253 -0.2104473 -0.35383627 -0.77063674 0.0605852 -0.12972026 0.31457666 -0.28387365 -0.37613866 -0.10931422 -0.22142887 -0.53500146 1.1946665 1.5753384 2.9270337 0.9744238 -0.30453077 -0.07077664 1.8219146 -0.24190164 -0.91425276 -0.13307211 0.596261 -0.29564187
578 -0.0009551354 -0.0066918596 0.07886972 -0.004305236 -0.019743845 0.020359274 0.04545723 -0.0038238678 -0.03659704 -0.044651493 -0.0030990012 -0.022825995 0.051955074 -0.019686613 -0.0418747 -0.00021413864 0.012578759 -0.0476471 0.059150107 0.06602199 0.13422017 0.04723213 -0.0034293344 -0.007266544 0.010054458 -0.00094070286 -0.06194756 -0.007350278 0.03443588 -0.019424437
856 -0.2043679 2.1637423 1.5265975 -0.14047252 -0.98048824 -0.03712984 0.30427396 2.1687918 -0.6151051 -1.0061779 -0.33097443 -0.5617911 -0.05276045 -0.4273234 -0.7842354 -0.10721874 -0.3637124 -0.87092525 -0.0030483291 -0.23586665 0.12156396 1.6741052 -0.19867574 -0.6384756 2.164703 -0.2979119 -1.9127957 -0.07114121 0.121520475 -0.3736256
515 -0.35270604 1.3119164 1.499778 -0.17528872 -0.6627395 2.2721343 0.46719646 -0.1414889 -0.36210343 -1.1400647 -0.09786775 -0.34868342 -0.17621925 -0.46101314 -0.42077523 -0.21235971 -0.11179685 -0.5837269 1.9058594 -0.052952606 1.7377858 1.4090171 -0.26291087 -0.50266224 1.4916999 -0.31832728 -1.37622 0.30903193 -0.25021976 -0.10170048
319 -0.11338287 -0.08322679 0.13141441 -0.022878302 -0.16692546 -0.0722292 0.09120837 -0.043065812 -0.16083902 -0.37815306 -0.093844764 -0.112700224 0.028200882 -0.0941826 -0.09307376 -0.066741586 -0.13923469 -0.18443313 -0.05496935 0.088742636 -0.011673041 0.67888707 -0.038385477 -0.13846953 0.21403988 -0.07146737 -0.42452416 -0.10113757 -0.0195266 -0.08299612
184 -0.39133146 -0.39155468 3.7249827 -0.25848204 -1.1469678 -0.13771291 -0.024270475 -0.28196505 -0.729355 -1.7981246 -0.18455099 -0.6639058 1.1446518 -0.63197094 -0.6972243 -0.41539922 -0.40300256 -1.3967048 0.6306855 1.5684881 2.4400275 3.811105 -0.1851408 -0.68484586 4.1043653 -0.18725032 -2.2585845 -0.36210802 -0.14605336 -0.41000935
111 -0.009792246 -0.06374215 0.35094988 -0.02325112 -0.15837546 -0.06940241 -0.014258153 -0.020621879 -0.15144603 -0.3105974 -0.08817839 -0.1280574 -0.00804227 -0.10376244 -0.1235817 0.0096640065 -0.0603756 -0.15303743 -0.0077670375 0.12923244 0.16207606 0.47668177 -0.027011776 -0.10390458 0.31591612 -0.075418256 -0.43647227 -0.022213269 -0.005528807 -0.081308305
994 -0.016907107 -0.004307182 0.08655157 0.041360624 -0.028166378 0.036466844 0.052270107 -0.003685125 -0.019172153 -0.0225049 -0.006910205 -0.022067716 0.026558416 -0.014128223 -0.02867696 0.09476864 -0.005533199 -0.057002336 0.04149822 0.13197665 0.10873523 0.066922836 0.0010926928 0.030678894 0.020762827 0.0037135258 -0.045877982 0.020082522 0.028452951 -0.028311271
677 0.036248565 0.022172373 0.24063872 0.015058536 -0.04152398 0.1842875 0.05516296 0.0766763 -0.043030158 -0.052097615 0.036260314 -0.030467322 0.08045665 -0.038480222 -0.055449903 -0.0010685854 -0.00276438 -0.05337313 0.13528863 0.004228212 0.13733464 0.11325234 -0.0061335997 -0.017197989 0.14212717 0.011726826 -0.08625539 0.09330115 0.020982098 -0.027549818
253 -0.24783528 -0.23081742 2.0072548 -0.10279886 -0.5827019 -0.057876177 -0.108663976 -0.031788465 -0.46529624 -1.0941143 -0.04517567 -0.42176977 0.7535067 -0.38739097 -0.3994365 -0.2179036 -0.18903984 -0.71883583 -0.004700202 0.33656818 0.857579 2.1264122 -0.146093 -0.47626486 1.9945035 -0.19032083 -1.3343005 -0.17815511 -0.04614778 -0.20590754
221 -0.26915327 -0.25234953 2.7966611 0.14274079 -0.77736884 -0.0006260357 -0.0024981971 0.47980332 -0.42860332 -1.5293711 -0.2013434 -0.7169433 -0.0073546604 -0.6014032 -0.5608506 -0.3333313 -0.23834328 -0.95718986 -0.0025304675 0.50129914 1.9356637 3.3359535 -0.1091188 -0.7471739 2.8849378 -0.21080618 -1.872171 -0.11933605 -0.19933988 -0.39973554
44 -0.27996054 4.1581025 2.0216956 -0.26613975 -1.4330368 -0.08921526 0.19492167 3.3512726 -0.9116022 -1.3167447 -0.47567397 -0.7427835 -0.21130486 -0.66942376 -1.1298655 -0.17020409 -0.6425667 -1.1029223 -0.113539316 -0.38559672 -0.015894629 1.9575498 -0.17725213 -0.85729486 3.698413 -0.4269685 -2.712065 -0.05899919 0.78375655 -0.48830134
622 -0.0008555941 0.091963395 -0.0041554193 0.07299015 -0.017395204 -0.008975193 0.09831437 0.05966302 -0.0313834 -0.02087431 -0.00955592 -0.03750221 0.014468515 -0.0064811497 -0.02923043 0.1504515 0.0068286844 -0.012929804 -0.012812038 0.12607023 0.070672 0.043266475 -0.0035265267 -0.006688447 -0.0022805152 0.02139451 -0.03549997 -0.002451493 0.07847804 -0.02754733
693 -0.029703332 -0.026156759 0.4637672 -0.022083653 -0.069468364 0.13220872 0.012293072 -0.043944277 -0.06332692 -0.1333785 -0.009758077 -0.05938048 0.023238169 -0.062331386 -0.06806238 -0.014878996 -0.011463014 -0.115460694 0.024236567 0.006098643 0.29970932 0.28974873 -0.0019532994 -0.058740314 0.2215993 -0.011693324 -0.17847577 -0.0067153843 -0.019266788 -0.020217402
510 -0.03809266 1.3883183 -0.017649084 0.21759245 -0.2992272 -0.1287237 0.04544291 1.5859574 -0.23816657 -0.18156318 -0.21721914 -0.19106399 -0.07030194 -0.08952423 -0.33540425 0.5088153 -0.1790723 -0.1719728 -0.05696808 -0.11518153 -0.08460684 -0.028611427 -0.13334715 -0.16714966 -0.030269766 -0.10754366 -0.7323763 -0.04229083 0.19999975 -0.13367048
467 -0.17790727 -0.13490611 1.1684785 -0.05659277 -0.3311229 -0.06856278 -0.051987506 -0.024725202 -0.22879474 -0.5790536 -0.0874111 -0.2155577 0.36863247 -0.16830976 -0.2116386 -0.14887106 -0.14144965 -0.42636663 0.024113677 0.3449618 0.46927488 1.1339386 -0.07694997 -0.21652329 1.133142 -0.0557682 -0.7243321 -0.123843156 -0.007531356 -0.13625672
919 0.71380574 -0.08253873 0.17982145 -0.08774576 0.0038422477 -0.092533246 1.07824 -0.09615245 -0.16170597 -0.3301465 0.13909051 -0.069292866 -0.022043975 -0.12949567 -0.18690118 -0.048741702 -0.11688047 -0.25429553 0.4794222 0.7789054 1.4798684 0.558847 -0.12236326 -0.037330743 0.809059 -0.08220307 -0.394143 -0.08292717 0.08917153 -0.15789647
141 -0.24167173 3.49836 0.4892807 -0.123903744 -1.0397059 -0.10739565 0.29745108 4.0322294 -0.6758162 -0.7642906 -0.42048445 -0.5523171 -0.31891865 -0.42792 -0.8637728 -0.14112207 -0.55472624 -0.6658632 -0.11158371 -0.40825787 -0.18330184 0.699089 -0.22491708 -0.5764577 1.3233923 -0.302665 -1.9955361 -0.25005528 0.450872 -0.46347824
302 -0.06196878 -0.08574476 0.43073705 -0.02998522 -0.39651778 -0.065663144 0.25962812 -0.061213233 -0.31017146 -0.5011477 -0.11346368 -0.24912265 -0.033445537 -0.17973398 -0.27418378 0.18065049 -0.15528794 -0.3904655 0.08852481 0.7222368 0.32275707 0.6808246 -0.044869453 -0.13531859 0.824616 -0.13669206 -0.763382 -0.08745095 0.16239017 -0.22393027
632 -0.01039601 0.043661904 0.40835118 0.11919869 -0.059284605 0.09238034 0.008265125 0.056985654 -0.11576273 -0.13815014 -0.0057623005 -0.09561337 0.11809499 -0.06395587 -0.0688678 0.2347533 -0.013004328 -0.087013625 -0.005772531 -0.005144104 0.10267325 0.0021047518 0.24148762 -0.050296452 0.10428849 -0.02008953 -0.20735379 -0.0032307939 0.05547322 -0.045327235
5 -1.0675043 -0.8333371 2.7268813 -0.60345477 -2.5555823 -0.32121447 -0.0066046356 -0.933721 -1.6040624 -3.567421 -0.9587051 -1.3707182 -0.4467589 -1.0674752 -1.2223744 -0.46530446 -1.3033432 -2.1626155 -0.13339742 0.7154902 -0.085261 4.668951 -0.31547052 -1.4752845 6.5866585 -0.7176564 -4.7489285 -1.0364095 -0.41405064 -0.6978503
583 0.27813512 -0.012771353 -0.041872147 -0.008468566 0.31214735 0.08687237 -0.005785206 0.14408165 0.088013716 0.9409672 0.13603863 0.06553899 -0.0413789 0.30240676 0.0978544 -0.011048782 -0.048694126 0.3535388 -0.030998943 -0.047997028 -0.03781334 0.074710414 -0.031596985 -0.0010429636 -0.07171594 -0.0007208988 0.4471847 -0.02353391 -0.018238803 0.07196562
42 -0.36236522 -0.27016646 2.7890127 -0.11752025 -1.217828 -0.109058216 -0.13612357 -0.24131644 -0.80150557 -1.8586674 -0.36164358 -0.664034 -0.025453372 -0.706857 -0.75007486 -0.37588316 -0.40920034 -1.1199231 0.33510205 -0.078647815 0.77171904 2.6253202 -0.16274318 -0.74150443 3.103857 -0.37534454 -2.3745995 -0.30507323 -0.21568935 -0.3386362
948 -0.01259432 0.009150784 0.24551092 0.011849999 -0.013752055 0.062272597 -0.003125947 0.008832306 -0.035161592 -0.06769615 -0.003123051 -0.029980931 0.08612815 -0.032741133 -0.03038161 0.03267029 -0.003663414 -0.049799345 0.035191394 0.06501343 0.16484292 0.06983433 -0.0012526287 -0.014323236 0.043160703 -0.0035453246 -0.07513805 0.03525682 0.019818347 -0.016081894
88 -0.20042458 -0.10242009 0.72755635 -0.037539046 -0.57741755 -0.08424405 -0.010635197 -0.08744695 -0.4031057 -0.7027623 -0.24074756 -0.41466904 -0.1236392 -0.18410064 -0.37519577 0.8374897 -0.28639477 -0.6031645 -0.04225267 1.4640348 -0.010007532 0.69253564 0.053278506 -0.20911871 0.7349995 -0.13674319 -1.1187202 -0.08094345 0.13873461 -0.3043924
627 -0.061644495 -0.05479995 0.7117891 -0.03140494 -0.23291509 -0.023646025 0.015534477 0.25920954 -0.14313066 -0.31371745 -0.022785276 -0.14487088 0.69430757 -0.11234891 -0.18666832 -0.018926172 -0.08928525 -0.30559677 0.21619168 0.7897044 0.7155501 1.0480146 -0.08053086 -0.10132897 0.9444998 -0.017209304 -0.4533455 -0.05431493 0.2883562 -0.13708381
370 1.2292395 -0.15253375 0.5091661 -0.030288845 -0.46777773 -0.40683237 1.8963991 -0.15700375 -0.50620675 -1.253522 -0.2026494 -0.30038866 1.375021 -0.47690043 -0.5055508 -0.0989687 -0.20702247 -0.7187833 1.2257056 2.3422732 2.3919156 1.4299328 -0.29924768 -0.23844598 2.155281 -0.39356524 -1.4352201 -0.23021506 1.0189644 -0.3976409
906 -0.036147196 0.012406543 0.34328756 -0.03752613 -0.0603737 -0.01032938 -0.00530594 -0.015574521 -0.08188748 -0.13979667 0.008039145 -0.07433164 0.14392158 -0.06005749 -0.077010415 -0.021307126 -0.023284739 -0.1258173 0.02640649 0.078392595 0.23598526 0.26718616 -0.010592989 -0.038159877 0.16323091 -0.010509634 -0.17103495 -0.0080922 0.10287903 -0.028876124
81 -0.6416219 -0.5389959 3.6441143 -0.5412113 -1.7296628 -0.22261702 -0.14946102 -0.45980763 -0.98672974 -2.34116 -0.38654813 -0.9050872 0.09805866 -0.815468 -0.884865 -0.6671803 -0.67083293 -1.6971912 0.277175 0.30865908 0.8184468 5.01709 -0.12855302 -1.0063881 5.1493897 -0.32571533 -2.9614322 -0.67729455 -0.35320768 -0.54911053
971 -0.26860574 1.8367325 -0.04986657 -0.23323026 -1.2603369 -0.33307225 0.7963417 2.0921578 -0.8613996 -1.5037664 -0.51929873 -0.70285195 -0.20433095 -0.5614885 -0.8697435 -0.21332788 -0.9175292 -1.0530678 -0.12336917 0.5263062 -0.009356083 1.3811796 -0.43814778 -0.7715082 2.4452722 -0.50052255 -2.6411977 -0.49262562 0.085956916 -0.4847084
367 0.5695652 -0.25561476 3.130152 -0.16241114 -1.3293622 -0.23845766 0.81915325 -0.33172962 -1.1508027 -2.1827824 -0.29269022 -0.7744121 1.6955166 -0.8619696 -0.9373647 -0.31785357 -0.3386058 -1.3441838 1.3393095 1.0302038 2.5624995 2.827808 -0.2985191 -0.71967804 4.7144737 -0.54502106 -2.5985982 -0.26201975 0.7248458 -0.580442
465 -0.12727629 -0.059940573 0.8599727 0.023346834 -0.23125522 -0.0042559803 -0.02991463 0.27974516 -0.18815498 -0.43373963 -0.07623898 -0.21319778 0.09644272 -0.1464672 -0.17158507 -0.03467735 -0.07228837 -0.30210498 -0.00438022 0.38882667 0.40486878 1.0258934 -0.009499142 -0.16513224 0.601036 -0.030076921 -0.6014495 -0.056563713 -0.016863763 -0.1296296
886 -0.12163383 -0.092833154 0.1856829 -0.030281568 -0.2118388 -0.043389183 -0.048897173 -0.097797774 -0.123163186 -0.2625442 -0.091126315 -0.11871548 0.08236401 -0.05881687 -0.115707316 0.08968882 -0.09731183 -0.21542433 -0.02243172 0.16343132 -0.019933578 0.36386457 -0.0017108828 -0.031168712 0.19259036 -0.049309056 -0.40780807 -0.082372695 0.025208477 -0.07241173
335 -0.24215762 -0.16795902 0.69660866 -0.15957192 -0.32463574 -0.11955323 -0.09962119 -0.07434243 -0.23807226 -0.45698926 0.51454854 -0.08937873 3.8132737 -0.14895351 -0.31017244 -0.15971084 -0.0399933 -0.43764654 0.10521517 -0.12717827 0.63758045 0.5987623 -0.20664756 0.16905001 0.89234143 -0.066956155 -0.75267094 -0.103626326 2.277757 0.42076948
714 -0.14638469 0.588763 0.71294296 -0.14452185 -0.40961933 0.64137155 -0.026341349 -0.10936457 -0.29855826 -0.6648013 -0.03757299 -0.21117775 0.1032513 -0.2964731 -0.26349044 -0.11761405 -0.095840916 -0.3016573 0.6781054 -0.02371903 1.1845613 1.0389228 -0.2099289 -0.26345333 1.2002704 -0.19272761 -0.8305462 -0.015314055 -0.14427961 -0.060378052
127 -0.07917343 -0.1440596 1.4962767 -0.040155042 -0.4114389 -0.09516529 -0.00044318996 -0.0029162273 -0.33856133 -0.81694764 -0.056376155 -0.3010536 0.671759 -0.28701538 -0.31970042 -0.1511611 -0.11010349 -0.5288219 0.25573635 0.99119717 1.2786999 1.8568854 -0.15642895 -0.31591108 1.662039 -0.17657056 -0.9014247 -0.06430679 -0.0009137564 -0.18841317
915 0.0095418915 0.00077345595 0.15975104 0.089230515 -0.0060329456 -0.0140048815 0.14769468 0.09752718 -0.018278074 -0.039630312 0.07454004 -0.018964289 0.23353812 -0.01834458 -0.03859676 0.052962117 0.019496437 -0.073604904 0.14798221 0.20585622 0.2592733 0.1673488 -0.018517904 0.05125096 0.045434337 0.010360628 -0.042726785 0.020086676 0.19989975 -0.037601985
932 -0.46981454 -0.34578934 2.889043 -0.26413617 -1.6800556 -0.1225814 -0.14311005 -0.500688 -1.1393427 -2.4636352 -0.5535142 -0.8006134 -0.02580908 -0.89305764 -0.8959594 -0.3685131 -0.5978239 -1.2950103 0.24513283 -0.22550526 0.1290031 2.4911973 -0.29246855 -0.9097791 4.1155844 -0.57135105 -3.0573719 -0.5386592 -0.24592404 -0.30884984
14 -0.5224921 1.4519198 3.4592717 -0.11472086 -1.133033 3.2033072 0.005419733 -0.15659787 -0.875797 -2.1948886 -0.2795955 -0.66435623 -0.27216575 -0.8510848 -0.7699172 -0.29742017 -0.31785282 -1.0373056 2.715 -0.16149053 2.25083 2.4096072 -0.37004533 -0.9549245 2.8780475 -0.62320143 -2.6676471 0.5238607 -0.36157322 -0.24015804
989 0.33848274 -0.037756916 0.4391381 0.0892879 -0.044439632 -0.00721077 0.18397324 0.31096894 -0.066716254 -0.1199273 0.010862539 -0.089839205 0.10294782 -0.06931987 -0.10594054 0.014277037 0.052754197 -0.05698439 -0.00073305744 0.46444833 0.8266471 0.29405904 0.017975874 -0.004714264 0.4299084 -0.051052094 -0.12926312 0.050868247 0.22742511 -0.055048455
188 -0.2591442 -0.22515154 1.8988595 -0.17759147 -0.609569 -0.10458552 -0.11912938 -0.09363525 -0.39748242 -1.0059831 -0.10355258 -0.40819007 0.40721568 -0.34202084 -0.34423277 -0.2752194 -0.25458628 -0.6996745 0.10320722 0.5374454 1.100289 2.4719305 -0.10348737 -0.37802732 2.297624 -0.14654903 -1.2434448 -0.1969652 -0.08293823 -0.18849777
505 -0.07148943 1.2790731 -0.025805065 -0.15532102 -0.1358342 -0.042926084 0.029128635 0.7302409 -0.08231535 -0.0067216107 -0.076341346 -0.0006036196 -0.07090339 -0.07673856 -0.19073854 0.12718473 -0.13076293 -0.06124065 -0.050636034 -0.09742045 -0.0017230542 -0.0034050883 -0.081761025 -0.061390396 0.22448643 0.008763712 -0.27462992 0.10232265 0.4763516 0.031119231
793 -0.06168596 -0.05228084 0.53011227 0.095751636 -0.08591508 -0.006198679 -0.00598534 0.13706067 -0.0818952 -0.23504804 -0.005051512 -0.12032037 0.20248613 -0.10374164 -0.09808981 -0.0033905476 0.05669852 -0.12937407 0.018083192 0.25030574 0.448174 0.5887051 -0.038408987 -0.07512722 0.1972555 -0.08288336 -0.2671443 0.17370462 0.052880134 -0.03285011
438 1.3117536 -0.28257045 1.8830366 0.033234723 -1.2262076 -0.58064336 2.6397111 -0.37224695 -1.123422 -2.2390096 -0.42287517 -0.65952945 2.8287091 -0.88635963 -1.0192918 -0.21933778 -0.32133207 -1.5253989 2.1269097 3.535169 2.9558501 2.9991515 -0.46797538 -0.6692624 4.553404 -0.5574644 -2.7437294 -0.37508374 1.818098 -0.77137315
491 0.08688908 -0.028562102 0.9644202 -0.016792974 -0.25319445 0.43490613 0.09899978 -0.024468936 -0.20856689 -0.49873653 -0.02716105 -0.18611096 0.3008872 -0.22568534 -0.24669038 -0.071163915 -0.014509978 -0.29305962 0.49419868 -0.05128361 0.7452201 0.6308136 -0.043305177 -0.23840725 0.8247826 -0.15817176 -0.49452385 -0.0059934743 0.101289555 -0.05672407
502 -0.19095244 2.275282 -0.09970926 -0.24066375 -0.24573754 -0.12155113 -0.051122732 0.98102826 -0.1678437 -0.02179631 -0.23394923 -0.069372356 -0.22520402 -0.14426628 -0.2518348 0.29274207 -0.26744634 -0.038225185 -0.1381891 -0.2421228 -0.14758256 -0.07462404 -0.09306145 -0.111199096 -0.023664106 0.06276614 -0.57422864 -0.094560966 0.3501011 0.10507781
300 -0.35844103 -0.24252479 2.931224 -0.24684612 -1.1467024 -0.1832065 -0.0803903 -0.23188345 -0.7860836 -1.8917154 -0.43590364 -0.6731578 0.20718738 -0.6347856 -0.69790375 -0.24333599 -0.46596628 -1.1820518 0.03303317 -0.03432053 1.3327441 3.0889735 -0.23453747 -0.7590721 4.103076 -0.46814275 -2.407784 -0.25311056 -0.04813635 -0.23897062
934 -0.015924754 -0.029721964 0.19928159 -0.006999525 -0.07875257 -0.018661672 -0.007110408 0.09111219 -0.06768363 -0.17227831 -0.040930383 -0.07411964 0.049344696 -0.07133159 -0.060320403 -0.027563453 -0.047165588 -0.08052465 -0.008929407 0.16154057 0.28407046 0.26820266 -0.039630055 -0.04688419 0.21413772 -0.039784737 -0.19951935 -0.005139082 -0.0020875074 -0.02896803
806 -0.044733822 0.022072535 0.0014098417 0.19813314 -0.11468983 -0.057133276 0.1435873 0.091739856 -0.09740158 -0.0897508 -0.075274 -0.11914308 -0.043287396 -0.022165174 -0.12213504 0.9265602 -0.08662232 -0.15690878 -0.009138629 0.9125623 0.13093226 -0.0074190176 0.089928806 0.09625736 0.005080536 -0.05066975 -0.23795496 0.17583399 0.3935506 -0.10816491
417 1.697841 -0.29160997 1.2985022 -0.26941738 -0.52730435 -0.30116856 3.1700056 -0.37717542 -0.71631503 -1.557191 -0.03515063 -0.28707007 0.90073335 -0.5884184 -0.7277032 -0.3338857 -0.31124783 -1.177752 2.030831 2.7599676 4.479706 2.3060143 -0.45560065 -0.28907055 3.5408826 -0.35966834 -1.8175677 -0.33608758 0.72967 -0.6045074
281 -0.46616015 -0.3192398 1.1638525 -0.119165435 -1.1093646 -0.10482573 -0.102094784 -0.3547413 -0.5576921 -1.1128323 -0.39095983 -0.6527561 -0.20133136 -0.3241683 -0.5890586 1.8290316 -0.46344492 -1.1350913 -0.1380884 1.835491 -0.08819779 1.4525957 0.3128421 -0.26560652 1.9419804 -0.15915777 -1.818456 -0.20075826 0.05413397 -0.46791968
925 1.1947013 -0.111922875 0.034788743 -0.14787605 -0.057120193 -0.12574291 1.2724829 -0.1455345 -0.25937533 -0.5168687 0.12782577 -0.100047104 -0.048834037 -0.18977098 -0.25198153 -0.080453895 -0.20347717 -0.2907809 0.6070447 0.9707777 1.9572173 0.5972531 -0.20476618 -0.010546336 1.2047313 -0.17365882 -0.6202954 -0.08907186 0.01700138 -0.19242142
35 0.4300143 -0.14697665 1.9435385 -0.0025495277 -0.80961335 -0.41234928 2.5288918 -0.21950296 -0.7233476 -1.455346 -0.2662756 -0.43551785 2.6730292 -0.6400485 -0.7924641 -0.18526456 -0.12830982 -1.2863635 2.2771335 3.149326 2.4737542 2.3194792 -0.31716973 -0.4140206 3.3219929 -0.20586017 -1.7614136 -0.2180088 1.5528212 -0.631881
741 -0.053250533 -0.00901886 0.5590795 0.049491577 -0.055643238 0.2033642 0.016765052 -0.033659745 -0.11652911 -0.21086021 -0.03273933 -0.06865335 -0.0098372055 -0.08132456 -0.06281071 -0.02717419 -0.0012292333 -0.12652896 0.05003237 -0.022964442 0.06744248 0.14540102 0.22777136 -0.104506254 0.014247369 -0.042915832 -0.21674554 -0.038742956 -0.03166079 -0.008582186
590 0.3916323 -0.022020278 0.8279474 0.34844774 -0.3318252 -0.35022756 2.1256666 -0.053312816 -0.33838704 -0.78154206 -0.10168729 -0.2438523 2.8225253 -0.3305792 -0.45126066 0.024885453 -0.0033357895 -0.8384043 1.7910188 3.035909 1.6288649 1.5767272 -0.208034 -0.16615604 1.4811764 -0.07608852 -0.8880665 -0.1533404 1.436553 -0.48852
850 0.0869891 0.082324624 0.20856819 -0.0027507127 -0.048289876 0.18897001 0.04754366 0.08586125 -0.053301442 -0.06588297 0.0957394 -0.042823873 0.14742008 -0.043550313 -0.059394863 0.014457621 -0.0030184232 -0.058719795 0.059981324 0.042414106 0.12760426 0.14223275 -0.006724868 -0.01762362 0.15979348 -0.0013882489 -0.07268232 0.078418404 0.10612266 -0.028718561
865 -0.120143905 -0.03941133 0.18610026 0.07034138 -0.18885306 -0.04843723 -0.015140927 -0.080973536 -0.12655924 -0.2784396 -0.10750257 -0.12693481 -0.021872174 -0.08648341 -0.14711212 0.73927844 -0.112217024 -0.2513916 -0.018555794 0.8051447 -0.0045845853 0.22882801 0.12584963 -0.0010347441 0.25747836 -0.037314933 -0.37541598 -0.0069979914 0.22044687 -0.10722702
21 -0.59949595 -0.66475904 4.5660954 -0.5541596 -2.130977 -0.20348775 -0.25841787 -0.45706207 -1.4402575 -2.844081 -0.45939156 -1.1114466 -0.026800126 -1.0173415 -1.0615126 -0.59776723 -0.8697099 -1.8644505 -0.0065483497 0.18152922 0.91127676 5.344489 -0.40466332 -1.2058694 6.5965805 -0.5777275 -3.823349 -0.8013369 -0.3544403 -0.5771088
825 0.4524011 -0.01081746 -0.025919462 -0.028995723 -0.07989526 -0.050376642 -0.026459092 0.34210366 -0.082012765 -0.055250864 -0.07484637 -0.095224716 -0.028548753 -0.020517126 -0.07903301 0.62192655 -0.10691662 -0.0891695 -0.002754541 0.5694861 0.17162748 -0.0062117646 -0.10474851 -0.035394605 0.28345495 -0.027177174 -0.19741598 0.2568039 -0.07260274 -0.036505964
619 -0.06885019 -0.0768225 0.3166964 -0.0040686512 -0.14335585 -0.057746448 -0.02182964 -0.013533428 -0.11038488 -0.26845878 -0.06496806 -0.13074704 0.027212737 -0.06426439 -0.12582397 0.21555783 -0.057928808 -0.18344629 -0.019356469 0.6157089 0.30416942 0.62228084 -0.0173618 -0.06801556 0.2866415 -0.07224613 -0.3468078 0.010629032 0.16229375 -0.08817146
361 1.649724 -0.22988491 1.1706918 -0.09913712 -0.54488355 -0.4313658 2.2914495 -0.24495307 -0.73764104 -1.4910291 -0.18902038 -0.31518516 1.7047471 -0.60506463 -0.65212876 -0.21846512 -0.28702715 -1.054331 1.7211039 2.9551325 3.3077774 2.1169868 -0.33873856 -0.26800406 2.6910987 -0.35488477 -1.776584 -0.25465855 1.1788735 -0.52249044
979 -0.0011956453 -0.029293505 0.4930796 0.23952782 -0.08432933 -0.010029863 -0.014603234 0.40020597 -0.04216636 -0.18102235 -0.0020144675 -0.10344207 0.16270651 -0.07699703 -0.08801776 -0.027049625 0.00085755065 -0.11756382 -0.0025559568 0.1298539 0.34307727 0.52439135 -0.026300147 -0.06988494 0.40585685 -0.03238966 -0.16013566 0.014492787 0.14745574 -0.066886604
429 -0.3362528 -0.20704138 0.7767854 -0.22662905 -0.45399505 -0.094690494 -0.09823791 -0.11366039 -0.28314626 -0.5615623 0.3946851 -0.18694381 3.6609652 -0.18742783 -0.37335503 -0.16772316 -0.090885326 -0.5944482 -0.0028412626 -0.16175777 0.33395195 0.8595245 -0.16404407 -0.000959377 1.1943953 -0.025534922 -0.95439845 -0.17108217 2.1989486 0.080100186
69 -0.37283868 -0.5042245 1.7834735 -0.34626967 -0.9204113 -0.38825032 -0.19306631 -0.17158045 -0.5734492 -1.4038332 -0.15452848 -0.6105032 1.2707237 -0.43123528 -0.5158377 -0.43211564 -0.53156054 -1.090623 -0.010756316 2.3933446 1.4775285 4.0448117 -0.3023526 -0.503367 3.3611817 -0.21894081 -1.89616 -0.44368225 -0.16370584 -0.3597785
795 0.08855722 -0.0028395564 0.08236324 -0.0017073773 -0.018836183 -0.005152875 0.10151726 0.0067282654 -0.029726554 -0.05879851 -0.0013557848 -0.02895521 0.13396473 -0.032603543 -0.04343039 0.0068334825 -0.00982999 -0.04769584 0.034674183 0.16835126 0.19194709 0.08623396 -0.013975856 0.00046051294 0.09604244 -0.015210926 -0.075996734 0.03038365 0.094687775 -0.033379212
682 -0.019469347 -0.03192257 0.24803354 0.04088258 -0.06775864 0.09236363 -0.015747031 -0.037168592 -0.06276974 -0.109151684 -0.021330304 -0.03750765 0.018175853 -0.04953486 -0.036007497 -0.037011545 -0.0047171223 -0.06441428 0.18311992 0.008540589 0.11452269 0.09538543 -0.012486215 -0.01912074 0.09469843 -0.012904378 -0.13321756 -0.0032501742 -0.035749435 -0.019683035
